<?xml version="1.0"?>
<MethodSetup Method="MLP::MLP">
  <GeneralInfo>
    <Info name="TMVA Release" value="4.2.1 [262657]"/>
    <Info name="ROOT Release" value="6.10/05 [395781]"/>
    <Info name="Creator" value="bjoshi"/>
    <Info name="Date" value="Thu Sep 26 14:10:35 2019"/>
    <Info name="Host" value="Linux cmsbuild09.cern.ch 2.6.32-696.1.1.el6.x86_64 #1 SMP Wed Apr 12 08:44:28 CEST 2017 x86_64 x86_64 x86_64 GNU/Linux"/>
    <Info name="Dir" value="/afs/cern.ch/work/b/bjoshi/Analysis/workdirTMVAAnalysisSep_24_2019/Code/CommonUtils/tmva"/>
    <Info name="Training events" value="13617"/>
    <Info name="TrainingTime" value="7.62447062e+01"/>
    <Info name="AnalysisType" value="Classification"/>
  </GeneralInfo>
  <Options>
    <Option name="NCycles" modified="Yes">600</Option>
    <Option name="HiddenLayers" modified="Yes">N+5</Option>
    <Option name="NeuronType" modified="Yes">tanh</Option>
    <Option name="RandomSeed" modified="No">1</Option>
    <Option name="EstimatorType" modified="No">CE</Option>
    <Option name="NeuronInputType" modified="No">sum</Option>
    <Option name="V" modified="Yes">False</Option>
    <Option name="VerbosityLevel" modified="No">Default</Option>
    <Option name="VarTransform" modified="Yes">N</Option>
    <Option name="H" modified="Yes">True</Option>
    <Option name="CreateMVAPdfs" modified="No">False</Option>
    <Option name="IgnoreNegWeightsInTraining" modified="No">False</Option>
    <Option name="TrainingMethod" modified="No">BP</Option>
    <Option name="LearningRate" modified="No">2.000000e-02</Option>
    <Option name="DecayRate" modified="No">1.000000e-02</Option>
    <Option name="TestRate" modified="Yes">5</Option>
    <Option name="EpochMonitoring" modified="No">False</Option>
    <Option name="Sampling" modified="No">1.000000e+00</Option>
    <Option name="SamplingEpoch" modified="No">1.000000e+00</Option>
    <Option name="SamplingImportance" modified="No">1.000000e+00</Option>
    <Option name="SamplingTraining" modified="No">True</Option>
    <Option name="SamplingTesting" modified="No">False</Option>
    <Option name="ResetStep" modified="No">50</Option>
    <Option name="Tau" modified="No">3.000000e+00</Option>
    <Option name="BPMode" modified="No">sequential</Option>
    <Option name="BatchSize" modified="No">-1</Option>
    <Option name="ConvergenceImprove" modified="No">1.000000e-30</Option>
    <Option name="ConvergenceTests" modified="No">-1</Option>
    <Option name="UseRegulator" modified="Yes">False</Option>
    <Option name="UpdateLimit" modified="No">10000</Option>
    <Option name="CalculateErrors" modified="No">False</Option>
    <Option name="WeightRange" modified="No">1.000000e+00</Option>
  </Options>
  <Variables NVar="11">
    <Variable VarIndex="0" Expression="var_vertexKFChi2" Label="var_vertexKFChi2" Title="Variable vertexKFChi2" Unit="units" Internal="var_vertexKFChi2" Type="F" Min="3.83814704e-03" Max="9.96464615e+01"/>
    <Variable VarIndex="1" Expression="var_svpvTauAngle" Label="var_svpvTauAngle" Title="Variable svpvTauAngle" Unit="units" Internal="var_svpvTauAngle" Type="F" Min="7.99511545e-05" Max="2.91471839e+00"/>
    <Variable VarIndex="2" Expression="var_flightLenSig" Label="var_flightLenSig" Title="Variable flightLenSig" Unit="units" Internal="var_flightLenSig" Type="F" Min="2.01114655e-01" Max="2.24494553e+01"/>
    <Variable VarIndex="3" Expression="var_sumMuTrkKinkChi2" Label="var_sumMuTrkKinkChi2" Title="Variable sumMuTrkKinkChi2" Unit="units" Internal="var_sumMuTrkKinkChi2" Type="F" Min="4.74779320e+00" Max="5.91793262e+03"/>
    <Variable VarIndex="4" Expression="var_segCompMuMin" Label="var_segCompMuMin" Title="Variable segCompMuMin" Unit="units" Internal="var_segCompMuMin" Type="F" Min="0.00000000e+00" Max="1.00000000e+00"/>
    <Variable VarIndex="5" Expression="var_MinMIPLikelihood" Label="var_MinMIPLikelihood" Title="Variable MinMIPLikelihood" Unit="units" Internal="var_MinMIPLikelihood" Type="F" Min="1.48508479e-06" Max="9.93214130e-01"/>
    <Variable VarIndex="6" Expression="var_maxdca" Label="var_maxdca" Title="Variable maxdca" Unit="units" Internal="var_maxdca" Type="F" Min="3.84330750e-04" Max="9.31046867e+00"/>
    <Variable VarIndex="7" Expression="var_MuMu_mindR" Label="var_MuMu_mindR" Title="Variable MuMu_mindR" Unit="units" Internal="var_MuMu_mindR" Type="F" Min="3.69928312e-04" Max="3.31662893e-01"/>
    <Variable VarIndex="8" Expression="var_RelPt_Mu1Tau" Label="var_RelPt_Mu1Tau" Title="Variable RelPt_Mu1Tau" Unit="units" Internal="var_RelPt_Mu1Tau" Type="F" Min="3.69350240e-02" Max="8.82879615e-01"/>
    <Variable VarIndex="9" Expression="var_MuMu_minKFChi2" Label="var_MuMu_minKFChi2" Title="Variable MuMu_minKFChi2" Unit="units" Internal="var_MuMu_minKFChi2" Type="F" Min="0.00000000e+00" Max="2.96645393e+01"/>
    <Variable VarIndex="10" Expression="var_MuTau_maxdR" Label="var_MuTau_maxdR" Title="Variable MuTau_maxdR" Unit="units" Internal="var_MuTau_maxdR" Type="F" Min="1.81391253e-03" Max="4.25215781e-01"/>
  </Variables>
  <Spectators NSpec="1">
    <Spectator SpecIndex="0" Expression="var_tauMass" Label="var_tauMass" Title="Variable tauMass" Unit="units" Internal="var_tauMass" Type="F" Min="6.00327790e-01" Max="3.68828702e+00"/>
  </Spectators>
  <Classes NClass="2">
    <Class Name="Signal" Index="0"/>
    <Class Name="Background" Index="1"/>
  </Classes>
  <Transformations NTransformations="1">
    <Transform Name="Normalize">
      <Selection>
        <Input NInputs="11">
          <Input Type="Variable" Label="var_vertexKFChi2" Expression="var_vertexKFChi2"/>
          <Input Type="Variable" Label="var_svpvTauAngle" Expression="var_svpvTauAngle"/>
          <Input Type="Variable" Label="var_flightLenSig" Expression="var_flightLenSig"/>
          <Input Type="Variable" Label="var_sumMuTrkKinkChi2" Expression="var_sumMuTrkKinkChi2"/>
          <Input Type="Variable" Label="var_segCompMuMin" Expression="var_segCompMuMin"/>
          <Input Type="Variable" Label="var_MinMIPLikelihood" Expression="var_MinMIPLikelihood"/>
          <Input Type="Variable" Label="var_maxdca" Expression="var_maxdca"/>
          <Input Type="Variable" Label="var_MuMu_mindR" Expression="var_MuMu_mindR"/>
          <Input Type="Variable" Label="var_RelPt_Mu1Tau" Expression="var_RelPt_Mu1Tau"/>
          <Input Type="Variable" Label="var_MuMu_minKFChi2" Expression="var_MuMu_minKFChi2"/>
          <Input Type="Variable" Label="var_MuTau_maxdR" Expression="var_MuTau_maxdR"/>
        </Input>
        <Output NOutputs="11">
          <Output Type="Variable" Label="var_vertexKFChi2" Expression="var_vertexKFChi2"/>
          <Output Type="Variable" Label="var_svpvTauAngle" Expression="var_svpvTauAngle"/>
          <Output Type="Variable" Label="var_flightLenSig" Expression="var_flightLenSig"/>
          <Output Type="Variable" Label="var_sumMuTrkKinkChi2" Expression="var_sumMuTrkKinkChi2"/>
          <Output Type="Variable" Label="var_segCompMuMin" Expression="var_segCompMuMin"/>
          <Output Type="Variable" Label="var_MinMIPLikelihood" Expression="var_MinMIPLikelihood"/>
          <Output Type="Variable" Label="var_maxdca" Expression="var_maxdca"/>
          <Output Type="Variable" Label="var_MuMu_mindR" Expression="var_MuMu_mindR"/>
          <Output Type="Variable" Label="var_RelPt_Mu1Tau" Expression="var_RelPt_Mu1Tau"/>
          <Output Type="Variable" Label="var_MuMu_minKFChi2" Expression="var_MuMu_minKFChi2"/>
          <Output Type="Variable" Label="var_MuTau_maxdR" Expression="var_MuTau_maxdR"/>
        </Output>
      </Selection>
      <Class ClassIndex="0">
        <Ranges>
          <Range Index="0" Min="3.8381470367312431e-03" Max="9.9646461486816406e+01"/>
          <Range Index="1" Min="1.1483516573207453e-04" Max="4.8857113718986511e-01"/>
          <Range Index="2" Min="8.9262747764587402e-01" Max="1.6504142761230469e+01"/>
          <Range Index="3" Min="7.6331119537353516e+00" Max="1.0319599609375000e+03"/>
          <Range Index="4" Min="0.0000000000000000e+00" Max="1.0000000000000000e+00"/>
          <Range Index="5" Min="1.4850847946945578e-06" Max="9.9321413040161133e-01"/>
          <Range Index="6" Min="3.8433074951171875e-04" Max="3.6762266159057617e+00"/>
          <Range Index="7" Min="2.3647826164960861e-03" Max="3.1333741545677185e-01"/>
          <Range Index="8" Min="4.1875630617141724e-02" Max="8.4894073009490967e-01"/>
          <Range Index="9" Min="0.0000000000000000e+00" Max="2.0598953247070312e+01"/>
          <Range Index="10" Min="3.7478967569768429e-03" Max="4.1910237073898315e-01"/>
        </Ranges>
      </Class>
      <Class ClassIndex="1">
        <Ranges>
          <Range Index="0" Min="5.6725004687905312e-03" Max="9.9634361267089844e+01"/>
          <Range Index="1" Min="7.9951154475566000e-05" Max="2.9147183895111084e+00"/>
          <Range Index="2" Min="2.0111465454101562e-01" Max="2.2449455261230469e+01"/>
          <Range Index="3" Min="4.7477931976318359e+00" Max="5.9179326171875000e+03"/>
          <Range Index="4" Min="0.0000000000000000e+00" Max="1.0000000000000000e+00"/>
          <Range Index="5" Min="1.4997611970102298e-06" Max="9.9020195007324219e-01"/>
          <Range Index="6" Min="1.1963844299316406e-03" Max="9.3104686737060547e+00"/>
          <Range Index="7" Min="3.6992831155657768e-04" Max="3.3166289329528809e-01"/>
          <Range Index="8" Min="3.6935023963451385e-02" Max="8.8287961483001709e-01"/>
          <Range Index="9" Min="0.0000000000000000e+00" Max="2.9664539337158203e+01"/>
          <Range Index="10" Min="1.8139125313609838e-03" Max="4.2521578073501587e-01"/>
        </Ranges>
      </Class>
      <Class ClassIndex="2">
        <Ranges>
          <Range Index="0" Min="3.8381470367312431e-03" Max="9.9646461486816406e+01"/>
          <Range Index="1" Min="7.9951154475566000e-05" Max="2.9147183895111084e+00"/>
          <Range Index="2" Min="2.0111465454101562e-01" Max="2.2449455261230469e+01"/>
          <Range Index="3" Min="4.7477931976318359e+00" Max="5.9179326171875000e+03"/>
          <Range Index="4" Min="0.0000000000000000e+00" Max="1.0000000000000000e+00"/>
          <Range Index="5" Min="1.4850847946945578e-06" Max="9.9321413040161133e-01"/>
          <Range Index="6" Min="3.8433074951171875e-04" Max="9.3104686737060547e+00"/>
          <Range Index="7" Min="3.6992831155657768e-04" Max="3.3166289329528809e-01"/>
          <Range Index="8" Min="3.6935023963451385e-02" Max="8.8287961483001709e-01"/>
          <Range Index="9" Min="0.0000000000000000e+00" Max="2.9664539337158203e+01"/>
          <Range Index="10" Min="1.8139125313609838e-03" Max="4.2521578073501587e-01"/>
        </Ranges>
      </Class>
    </Transform>
  </Transformations>
  <MVAPdfs/>
  <Weights>
    <Layout NLayers="3">
      <Layer Index="0" NNeurons="12">
        <Neuron NSynapses="16">
          1.8268453032995555e-01 2.1893640034335768e+00 7.6012263183869555e-01 2.5890665129649468e+00 -1.7412397695320028e+00 -6.8936957123848014e-03 -7.1732376426631372e-01 -8.1099396102019339e-01 -1.7684527066501581e+00 -3.7229351297336033e-01 -6.1100613234102461e+00 -1.6101630413801638e+00 -1.9903632379452854e+00 -2.1761782619987616e-01 1.7291727584643954e-01 -3.4729399442169068e-01 
        </Neuron>
        <Neuron NSynapses="16">
          -2.6483753025719312e+00 2.0892260955773811e+00 -1.8034619317445908e+00 8.9147399507187575e-01 -8.3789792455855305e-01 -5.1703432491547510e+00 9.1949132093977204e-01 6.2693212069864102e-01 -1.3870775978687191e+00 -2.3443638100712603e+00 -6.1542843740062425e+00 -2.2573044702056921e+00 -2.0179147646192939e+00 5.3091839911288463e-01 3.7085752872244697e+00 9.5349719213711204e+00 
        </Neuron>
        <Neuron NSynapses="16">
          -8.5321498042270638e-01 5.7831671133127732e-02 4.0476170788588561e-02 -3.8513466696837395e-01 -1.5566728629147124e+00 1.0841252897932558e+00 -1.1648449772272866e+00 1.2880986567682977e+00 1.1030609765930770e+00 5.2506157276524967e-01 3.4797571089431500e-01 1.2813527999060561e+00 -1.5190117718190681e+00 -2.0044099099276376e+00 -6.5561816619921454e-01 4.7234142139400094e-03 
        </Neuron>
        <Neuron NSynapses="16">
          3.8607262466939335e-01 1.5119896887969246e+00 8.6531299899149527e-01 9.4861523422997596e-01 -2.1756838373233425e+00 9.1613833546542311e-01 -1.6869824615342206e+00 -2.9420325509123901e-01 -1.6394256513754781e+00 2.6487812080396073e-01 -1.3960399213357193e+00 -5.8131033334489945e-01 -1.7008314126713879e+00 6.2051753661790687e-01 5.8002884354202866e-01 3.4599485028179893e+00 
        </Neuron>
        <Neuron NSynapses="16">
          1.1910380575538770e+00 2.5500543610605869e-01 2.1253919600533389e-01 -9.7429016454665951e-01 3.0242974679843887e-01 -1.1951745263783600e-01 -8.1894500655532432e-01 -3.0834821764452820e+00 3.7985840715753161e-01 6.3394506897651137e+00 -8.5614220950774207e-03 -1.2555372251651238e+00 -1.3392438071435890e+00 -3.0317370908968027e+00 -3.8774034825520881e-01 1.9706785014770878e-01 
        </Neuron>
        <Neuron NSynapses="16">
          4.2665515247098762e-01 1.3677504685678232e+00 2.3555122887969931e-01 -2.5710769027810448e-01 -5.3014121586297414e-01 7.1947956252793696e-02 1.3319130355466309e+00 7.3722493815536083e-01 6.3801482643783838e-02 6.5983276995489767e-02 1.0487716908784543e-01 1.1146768889869823e+00 1.2840435355625042e+00 -1.3478355447892496e-01 -2.4089974799467972e-01 4.7332089584670667e-02 
        </Neuron>
        <Neuron NSynapses="16">
          -2.9503977682475807e-01 -1.5218104512896726e+00 -2.5275582957693841e+00 -1.8660106344297506e-01 -2.2117093460654158e+00 -1.0665250516121390e+00 8.9512050365980034e-01 1.2495440689778634e+00 -1.7159865182926199e+00 9.0913371640208607e-01 1.7232383574618932e+00 -7.9548825883540963e-01 -5.9564256532551563e-01 3.6779928183651800e-01 -5.3996462928980082e-01 -5.8847233796265566e-02 
        </Neuron>
        <Neuron NSynapses="16">
          2.4220629054083918e+00 -2.2067819016170145e-01 -1.2814322663043660e+00 1.5394211791510479e+00 -1.1316779685694447e-01 -7.3753952119938282e-01 9.2834876582150117e-01 -1.8611955369727378e+00 -1.5217472155515617e+00 2.2053838932859210e-01 -3.2838728746371831e-01 1.0451616724587018e+00 1.0984835672588316e+00 -3.2458057867397361e-02 -2.3565113657285695e+00 -2.8893680541149691e-01 
        </Neuron>
        <Neuron NSynapses="16">
          -2.7941662004709520e+00 4.3628801257036415e-01 1.6929296138310007e-01 -2.2850761495509420e+00 3.6652059365154654e-01 -1.2338507631985076e+00 1.2291741700015686e-01 8.4685931337897791e-01 7.7267808241325964e-01 2.9061899758218251e-01 1.3236001861983654e-01 6.9057690065210897e-01 6.7399696408174992e-01 -6.9310315752816232e-01 -1.2932509909728551e+00 -1.6358111218419658e-01 
        </Neuron>
        <Neuron NSynapses="16">
          -1.9993486231226384e-01 1.3029053198495306e+00 6.7641693397203451e-01 -6.9858247713514765e-01 -9.5672185925781750e-01 -2.0795884390090817e+00 -1.1707072003593677e+00 -2.8652958834862890e-02 1.4020687148291233e+00 -8.5313499889990829e-01 1.9477396616611886e+00 5.7904467746144728e-01 4.6673016942048307e-01 4.9396481233332967e-01 1.0994784369761115e+00 -3.9799904715135193e-01 
        </Neuron>
        <Neuron NSynapses="16">
          -9.7750327745009735e-01 3.4560493663001607e-01 2.8840447883341578e+00 6.2323733672247494e-01 7.3689310768399652e-01 -3.0512780470734230e-01 -5.5308364173703239e-01 -5.2685775744071173e-01 7.1807870837210241e-01 -1.7631103661218486e-01 2.1278118388308226e-01 1.6756394670954489e+00 -5.9080310214322374e-01 1.1659413426780973e+00 2.5289542725702918e+00 -2.2838002610957937e-02 
        </Neuron>
        <Neuron NSynapses="16">
          -2.2897606065893013e+00 -1.4726159168038111e-01 -2.2417033994735278e+00 -1.2441172028691658e+00 -8.8537242380546977e-01 -6.7225276502244258e+00 1.5987687769560572e+00 -1.1510674268643835e+00 -3.0150187567903148e+00 -6.1236163604848519e+00 -9.5785454381227719e+00 3.2841516458521922e+00 -4.5210083881595264e-01 3.9692246997271707e-04 4.3036373446263223e+00 1.1914539416532588e+01 
        </Neuron>
      </Layer>
      <Layer Index="1" NNeurons="17">
        <Neuron NSynapses="1">
          7.4892453152890781e-01 
        </Neuron>
        <Neuron NSynapses="1">
          1.6786792154269252e+00 
        </Neuron>
        <Neuron NSynapses="1">
          8.5479458307037215e-01 
        </Neuron>
        <Neuron NSynapses="1">
          -1.4524143047558391e+00 
        </Neuron>
        <Neuron NSynapses="1">
          -2.0906733836986775e+00 
        </Neuron>
        <Neuron NSynapses="1">
          2.5938717541089731e+00 
        </Neuron>
        <Neuron NSynapses="1">
          -7.0009793323534047e-02 
        </Neuron>
        <Neuron NSynapses="1">
          -5.5831808159824392e-01 
        </Neuron>
        <Neuron NSynapses="1">
          1.7318988637111001e+00 
        </Neuron>
        <Neuron NSynapses="1">
          9.9464776626086793e-01 
        </Neuron>
        <Neuron NSynapses="1">
          2.0002168040434243e+00 
        </Neuron>
        <Neuron NSynapses="1">
          -2.7222875100622823e+00 
        </Neuron>
        <Neuron NSynapses="1">
          1.5962018238469009e+00 
        </Neuron>
        <Neuron NSynapses="1">
          -7.2774692838349420e-01 
        </Neuron>
        <Neuron NSynapses="1">
          -1.0667122989148832e+00 
        </Neuron>
        <Neuron NSynapses="1">
          -5.4483356756334489e+00 
        </Neuron>
        <Neuron NSynapses="1">
          1.0206386647310151e+00 
        </Neuron>
      </Layer>
      <Layer Index="2" NNeurons="1">
        <Neuron NSynapses="0"/>
      </Layer>
    </Layout>
  </Weights>
</MethodSetup>
