<?xml version="1.0"?>
<MethodSetup Method="MLP::MLP">
  <GeneralInfo>
    <Info name="TMVA Release" value="4.2.1 [262657]"/>
    <Info name="ROOT Release" value="6.10/05 [395781]"/>
    <Info name="Creator" value="bjoshi"/>
    <Info name="Date" value="Thu Sep 26 14:09:03 2019"/>
    <Info name="Host" value="Linux cmsbuild09.cern.ch 2.6.32-696.1.1.el6.x86_64 #1 SMP Wed Apr 12 08:44:28 CEST 2017 x86_64 x86_64 x86_64 GNU/Linux"/>
    <Info name="Dir" value="/afs/cern.ch/work/b/bjoshi/Analysis/workdirTMVAAnalysisSep_24_2019/Code/CommonUtils/tmva"/>
    <Info name="Training events" value="16339"/>
    <Info name="TrainingTime" value="9.22340989e+01"/>
    <Info name="AnalysisType" value="Classification"/>
  </GeneralInfo>
  <Options>
    <Option name="NCycles" modified="Yes">600</Option>
    <Option name="HiddenLayers" modified="Yes">N+5</Option>
    <Option name="NeuronType" modified="Yes">tanh</Option>
    <Option name="RandomSeed" modified="No">1</Option>
    <Option name="EstimatorType" modified="No">CE</Option>
    <Option name="NeuronInputType" modified="No">sum</Option>
    <Option name="V" modified="Yes">False</Option>
    <Option name="VerbosityLevel" modified="No">Default</Option>
    <Option name="VarTransform" modified="Yes">N</Option>
    <Option name="H" modified="Yes">True</Option>
    <Option name="CreateMVAPdfs" modified="No">False</Option>
    <Option name="IgnoreNegWeightsInTraining" modified="No">False</Option>
    <Option name="TrainingMethod" modified="No">BP</Option>
    <Option name="LearningRate" modified="No">2.000000e-02</Option>
    <Option name="DecayRate" modified="No">1.000000e-02</Option>
    <Option name="TestRate" modified="Yes">5</Option>
    <Option name="EpochMonitoring" modified="No">False</Option>
    <Option name="Sampling" modified="No">1.000000e+00</Option>
    <Option name="SamplingEpoch" modified="No">1.000000e+00</Option>
    <Option name="SamplingImportance" modified="No">1.000000e+00</Option>
    <Option name="SamplingTraining" modified="No">True</Option>
    <Option name="SamplingTesting" modified="No">False</Option>
    <Option name="ResetStep" modified="No">50</Option>
    <Option name="Tau" modified="No">3.000000e+00</Option>
    <Option name="BPMode" modified="No">sequential</Option>
    <Option name="BatchSize" modified="No">-1</Option>
    <Option name="ConvergenceImprove" modified="No">1.000000e-30</Option>
    <Option name="ConvergenceTests" modified="No">-1</Option>
    <Option name="UseRegulator" modified="Yes">False</Option>
    <Option name="UpdateLimit" modified="No">10000</Option>
    <Option name="CalculateErrors" modified="No">False</Option>
    <Option name="WeightRange" modified="No">1.000000e+00</Option>
  </Options>
  <Variables NVar="11">
    <Variable VarIndex="0" Expression="var_vertexKFChi2" Label="var_vertexKFChi2" Title="Variable vertexKFChi2" Unit="units" Internal="var_vertexKFChi2" Type="F" Min="4.93335212e-03" Max="9.90441208e+01"/>
    <Variable VarIndex="1" Expression="var_svpvTauAngle" Label="var_svpvTauAngle" Title="Variable svpvTauAngle" Unit="units" Internal="var_svpvTauAngle" Type="F" Min="1.18228665e-04" Max="2.82946825e+00"/>
    <Variable VarIndex="2" Expression="var_flightLenSig" Label="var_flightLenSig" Title="Variable flightLenSig" Unit="units" Internal="var_flightLenSig" Type="F" Min="3.49412501e-01" Max="2.08171749e+01"/>
    <Variable VarIndex="3" Expression="var_sumMuTrkKinkChi2" Label="var_sumMuTrkKinkChi2" Title="Variable sumMuTrkKinkChi2" Unit="units" Internal="var_sumMuTrkKinkChi2" Type="F" Min="5.65686798e+00" Max="3.73279370e+03"/>
    <Variable VarIndex="4" Expression="var_segCompMuMin" Label="var_segCompMuMin" Title="Variable segCompMuMin" Unit="units" Internal="var_segCompMuMin" Type="F" Min="0.00000000e+00" Max="1.00000000e+00"/>
    <Variable VarIndex="5" Expression="var_MinMIPLikelihood" Label="var_MinMIPLikelihood" Title="Variable MinMIPLikelihood" Unit="units" Internal="var_MinMIPLikelihood" Type="F" Min="1.17318154e-06" Max="9.95340228e-01"/>
    <Variable VarIndex="6" Expression="var_maxdca" Label="var_maxdca" Title="Variable maxdca" Unit="units" Internal="var_maxdca" Type="F" Min="1.25885010e-04" Max="5.06948853e+00"/>
    <Variable VarIndex="7" Expression="var_MuMu_mindR" Label="var_MuMu_mindR" Title="Variable MuMu_mindR" Unit="units" Internal="var_MuMu_mindR" Type="F" Min="5.49165066e-04" Max="3.42327774e-01"/>
    <Variable VarIndex="8" Expression="var_RelPt_Mu1Tau" Label="var_RelPt_Mu1Tau" Title="Variable RelPt_Mu1Tau" Unit="units" Internal="var_RelPt_Mu1Tau" Type="F" Min="5.72086871e-02" Max="8.48588407e-01"/>
    <Variable VarIndex="9" Expression="var_MuMu_minKFChi2" Label="var_MuMu_minKFChi2" Title="Variable MuMu_minKFChi2" Unit="units" Internal="var_MuMu_minKFChi2" Type="F" Min="0.00000000e+00" Max="2.67643604e+01"/>
    <Variable VarIndex="10" Expression="var_MuTau_maxdR" Label="var_MuTau_maxdR" Title="Variable MuTau_maxdR" Unit="units" Internal="var_MuTau_maxdR" Type="F" Min="2.22029048e-03" Max="4.50455219e-01"/>
  </Variables>
  <Spectators NSpec="1">
    <Spectator SpecIndex="0" Expression="var_tauMass" Label="var_tauMass" Title="Variable tauMass" Unit="units" Internal="var_tauMass" Type="F" Min="5.89990795e-01" Max="3.07679439e+00"/>
  </Spectators>
  <Classes NClass="2">
    <Class Name="Signal" Index="0"/>
    <Class Name="Background" Index="1"/>
  </Classes>
  <Transformations NTransformations="1">
    <Transform Name="Normalize">
      <Selection>
        <Input NInputs="11">
          <Input Type="Variable" Label="var_vertexKFChi2" Expression="var_vertexKFChi2"/>
          <Input Type="Variable" Label="var_svpvTauAngle" Expression="var_svpvTauAngle"/>
          <Input Type="Variable" Label="var_flightLenSig" Expression="var_flightLenSig"/>
          <Input Type="Variable" Label="var_sumMuTrkKinkChi2" Expression="var_sumMuTrkKinkChi2"/>
          <Input Type="Variable" Label="var_segCompMuMin" Expression="var_segCompMuMin"/>
          <Input Type="Variable" Label="var_MinMIPLikelihood" Expression="var_MinMIPLikelihood"/>
          <Input Type="Variable" Label="var_maxdca" Expression="var_maxdca"/>
          <Input Type="Variable" Label="var_MuMu_mindR" Expression="var_MuMu_mindR"/>
          <Input Type="Variable" Label="var_RelPt_Mu1Tau" Expression="var_RelPt_Mu1Tau"/>
          <Input Type="Variable" Label="var_MuMu_minKFChi2" Expression="var_MuMu_minKFChi2"/>
          <Input Type="Variable" Label="var_MuTau_maxdR" Expression="var_MuTau_maxdR"/>
        </Input>
        <Output NOutputs="11">
          <Output Type="Variable" Label="var_vertexKFChi2" Expression="var_vertexKFChi2"/>
          <Output Type="Variable" Label="var_svpvTauAngle" Expression="var_svpvTauAngle"/>
          <Output Type="Variable" Label="var_flightLenSig" Expression="var_flightLenSig"/>
          <Output Type="Variable" Label="var_sumMuTrkKinkChi2" Expression="var_sumMuTrkKinkChi2"/>
          <Output Type="Variable" Label="var_segCompMuMin" Expression="var_segCompMuMin"/>
          <Output Type="Variable" Label="var_MinMIPLikelihood" Expression="var_MinMIPLikelihood"/>
          <Output Type="Variable" Label="var_maxdca" Expression="var_maxdca"/>
          <Output Type="Variable" Label="var_MuMu_mindR" Expression="var_MuMu_mindR"/>
          <Output Type="Variable" Label="var_RelPt_Mu1Tau" Expression="var_RelPt_Mu1Tau"/>
          <Output Type="Variable" Label="var_MuMu_minKFChi2" Expression="var_MuMu_minKFChi2"/>
          <Output Type="Variable" Label="var_MuTau_maxdR" Expression="var_MuTau_maxdR"/>
        </Output>
      </Selection>
      <Class ClassIndex="0">
        <Ranges>
          <Range Index="0" Min="4.9333521164953709e-03" Max="9.7805923461914062e+01"/>
          <Range Index="1" Min="1.1822866508737206e-04" Max="3.8474500179290771e-01"/>
          <Range Index="2" Min="7.4648725986480713e-01" Max="1.6034837722778320e+01"/>
          <Range Index="3" Min="5.6568679809570312e+00" Max="1.0151350708007812e+03"/>
          <Range Index="4" Min="0.0000000000000000e+00" Max="1.0000000000000000e+00"/>
          <Range Index="5" Min="5.4336187531589530e-06" Max="9.9534022808074951e-01"/>
          <Range Index="6" Min="1.2588500976562500e-04" Max="5.0694885253906250e+00"/>
          <Range Index="7" Min="1.7944679129868746e-03" Max="3.4232777357101440e-01"/>
          <Range Index="8" Min="5.7389326393604279e-02" Max="8.0537080764770508e-01"/>
          <Range Index="9" Min="0.0000000000000000e+00" Max="2.1661760330200195e+01"/>
          <Range Index="10" Min="2.2741456050425768e-03" Max="3.2145166397094727e-01"/>
        </Ranges>
      </Class>
      <Class ClassIndex="1">
        <Ranges>
          <Range Index="0" Min="2.1854478865861893e-02" Max="9.9044120788574219e+01"/>
          <Range Index="1" Min="3.9095603278838098e-04" Max="2.8294682502746582e+00"/>
          <Range Index="2" Min="3.4941250085830688e-01" Max="2.0817174911499023e+01"/>
          <Range Index="3" Min="5.9404988288879395e+00" Max="3.7327937011718750e+03"/>
          <Range Index="4" Min="0.0000000000000000e+00" Max="1.0000000000000000e+00"/>
          <Range Index="5" Min="1.1731815448001726e-06" Max="9.9423146247863770e-01"/>
          <Range Index="6" Min="5.2785873413085938e-04" Max="3.4006271362304688e+00"/>
          <Range Index="7" Min="5.4916506633162498e-04" Max="3.3116847276687622e-01"/>
          <Range Index="8" Min="5.7208687067031860e-02" Max="8.4858840703964233e-01"/>
          <Range Index="9" Min="0.0000000000000000e+00" Max="2.6764360427856445e+01"/>
          <Range Index="10" Min="2.2202904801815748e-03" Max="4.5045521855354309e-01"/>
        </Ranges>
      </Class>
      <Class ClassIndex="2">
        <Ranges>
          <Range Index="0" Min="4.9333521164953709e-03" Max="9.9044120788574219e+01"/>
          <Range Index="1" Min="1.1822866508737206e-04" Max="2.8294682502746582e+00"/>
          <Range Index="2" Min="3.4941250085830688e-01" Max="2.0817174911499023e+01"/>
          <Range Index="3" Min="5.6568679809570312e+00" Max="3.7327937011718750e+03"/>
          <Range Index="4" Min="0.0000000000000000e+00" Max="1.0000000000000000e+00"/>
          <Range Index="5" Min="1.1731815448001726e-06" Max="9.9534022808074951e-01"/>
          <Range Index="6" Min="1.2588500976562500e-04" Max="5.0694885253906250e+00"/>
          <Range Index="7" Min="5.4916506633162498e-04" Max="3.4232777357101440e-01"/>
          <Range Index="8" Min="5.7208687067031860e-02" Max="8.4858840703964233e-01"/>
          <Range Index="9" Min="0.0000000000000000e+00" Max="2.6764360427856445e+01"/>
          <Range Index="10" Min="2.2202904801815748e-03" Max="4.5045521855354309e-01"/>
        </Ranges>
      </Class>
    </Transform>
  </Transformations>
  <MVAPdfs/>
  <Weights>
    <Layout NLayers="3">
      <Layer Index="0" NNeurons="12">
        <Neuron NSynapses="16">
          -8.8852707849959778e-01 1.8030932929225056e+00 -4.5991936860669153e-01 1.1492983842236510e+00 -2.0021329778864381e+00 -9.4264372547585595e-01 -6.8502153550267764e-01 2.4004253753891582e+00 -1.2598931808102660e+00 -2.3199569515471136e-01 -5.0310157136759575e+00 -7.6102257731563583e-01 -2.0793591852256343e-01 6.5203577959468934e-02 3.0558571364398873e-01 2.8052485941862837e-01 
        </Neuron>
        <Neuron NSynapses="16">
          -4.3933572159022144e-01 1.7919047640202583e+00 5.9705484070173176e+00 1.2640580971951902e+00 -3.4744701351036195e-01 -7.8735391535154662e+00 6.4736501932025048e-01 3.8087217892426570e-02 -1.5193495447735743e+00 -1.1247624075702362e+01 -9.4430278383095576e+00 -1.6365617480922430e+00 -2.9319137037759964e+00 5.2167605757502578e-01 2.5635376343940592e+00 4.0546852202437380e+00 
        </Neuron>
        <Neuron NSynapses="16">
          -1.5147578175293527e-01 8.3459726889458274e-01 4.9221985037784244e-01 -6.6517284684509959e-01 -2.2203332387130374e+00 3.4758627929675363e+00 -1.1293355656667377e+00 1.7639844526117815e-01 2.0514959898836760e-01 -4.4621637849137497e-01 1.1110101725551451e+00 5.5172859340348546e-01 -3.7671674997539867e-01 -1.4288109641756006e+00 -1.7882417835402891e+00 -2.3200383434884159e-01 
        </Neuron>
        <Neuron NSynapses="16">
          1.5672439556071964e+00 1.0131523354915077e+00 5.1115460117822593e+00 1.1698010746620706e+00 -1.8855663118277548e+00 3.4848734591016095e-01 -1.9457241472545861e+00 -9.5424797979867004e-01 -1.5632214102607436e+00 -7.3955980560424113e+00 -1.1101079472952813e+00 -2.2808168294740479e-02 -2.4062859172591011e+00 7.3838569597930570e-01 -6.8386518520250239e-01 2.5484852705313084e+00 
        </Neuron>
        <Neuron NSynapses="16">
          2.1438644621117851e+00 6.3776522001275382e-01 -3.8730442678114152e-01 -1.4614987698717161e+00 2.8242049777444111e-01 -3.3793252415313685e-01 -7.7385348326073078e-01 -1.6228936321562581e+00 4.2725780227682664e-01 3.6639544287169140e-01 3.0132479837472109e-02 -3.0292780000083724e-01 -2.1906713530691526e+00 -1.2977211490108194e+00 -2.1654429662592841e-02 3.9378741739402362e-01 
        </Neuron>
        <Neuron NSynapses="16">
          1.8165761867672099e+00 3.4984613228789298e-02 2.6842735831123003e-02 -1.5021586578208403e+00 8.2568646127529244e-01 1.4713392584330590e-01 1.1642793372428437e+00 -5.3997645096636748e-01 -1.1590124499415648e+00 9.9071671928533250e-02 -5.0533262408527166e-03 -1.4829373183817898e-01 1.3912098088077651e+00 -1.8656849978595038e+00 2.6639638097029419e-02 4.6180412559378069e-02 
        </Neuron>
        <Neuron NSynapses="16">
          -7.6167560324083150e-01 -3.3376872139392653e+00 -1.9038827156616660e+00 7.0969472972502792e-03 -2.3384387430870173e+00 -3.2007142790774323e+00 6.1714182779264781e-01 1.5833283035385499e+00 -8.1069119622402275e-01 2.0993144260364741e-01 7.0508619917115090e-01 -1.8763598026625308e+00 -3.1675996261404393e-01 6.5670601092339120e-01 -1.8261729297239313e+00 1.4540964647093420e+00 
        </Neuron>
        <Neuron NSynapses="16">
          3.9151888029633333e-02 -3.3527759863961260e-01 -2.3634905298931055e+00 1.2216346046349620e+00 4.5220336507581560e-01 4.8232358741312248e-01 7.0378820572884171e-01 -1.5187144079049206e+00 -3.8469871635295592e+00 -1.7380099498970786e-01 -1.5803497459150753e-01 1.2005684482953463e+00 8.9250957441073764e-01 3.5089713506450237e-01 -8.6641317639621329e-01 1.7091407277506148e+00 
        </Neuron>
        <Neuron NSynapses="16">
          -1.2854422344372263e+00 1.1823627495382483e-01 -1.1326594429322787e+00 -2.4012784074909521e+00 2.2502499401028014e-01 -4.7635966453015055e-01 4.9519089936848337e-02 2.2625801893290483e+00 6.0227594753450997e-01 -4.9857033525632821e-01 1.2289643976713251e-01 1.0176333739559227e+00 1.9090803394485442e-01 -2.0219327340512669e-01 9.0940189788850445e-01 -2.5614750745073693e+00 
        </Neuron>
        <Neuron NSynapses="16">
          -1.2536983919845075e+00 2.7679042967815370e-01 5.3034439861265925e-01 -5.4107734190082579e-01 1.0027372938501751e-01 -2.3963095337779258e-01 -1.3822190498144065e+00 -4.1047316779097387e-01 1.3571177391499216e+00 1.1976520616148488e-01 3.3316978738133614e+00 -3.1241325919584545e-01 9.5673411593156421e-01 1.1135772612078074e+00 4.7451695185133569e-01 1.0673655575443890e+00 
        </Neuron>
        <Neuron NSynapses="16">
          8.8201531685172307e-01 1.2296514141369483e+00 -2.6984202071009683e-01 7.2334466788922047e-01 6.7914249092921275e-01 -1.4704678622711298e-01 -6.6957882151600523e-01 9.6877672247663971e-01 -5.6574799626742855e-01 -1.5801451397076896e-01 7.0305618343266601e-03 6.5960173815948664e-01 -6.8704976689703079e-01 1.6022069121674805e+00 5.1438160308908305e+00 -1.5870592030354238e+00 
        </Neuron>
        <Neuron NSynapses="16">
          5.0882372384623531e-01 -2.0443041919249777e-01 7.0586954819574022e+00 -1.5699140040482824e+00 -1.4166243723720446e+00 -8.9678173702711366e+00 1.8814546704311685e+00 -1.5553894357389668e+00 2.8947597112084184e-01 -1.9008831980091085e+01 -1.1168729582893883e+01 2.5120765841735722e+00 -5.1974332356217745e-01 -8.6141638539195897e-01 3.9772415486736930e+00 7.1222465106108555e+00 
        </Neuron>
      </Layer>
      <Layer Index="1" NNeurons="17">
        <Neuron NSynapses="1">
          -2.8643199193644490e-02 
        </Neuron>
        <Neuron NSynapses="1">
          1.3409264762013853e+00 
        </Neuron>
        <Neuron NSynapses="1">
          -1.4627511714471821e+00 
        </Neuron>
        <Neuron NSynapses="1">
          -1.3490226100044633e+00 
        </Neuron>
        <Neuron NSynapses="1">
          -3.2716909564006929e+00 
        </Neuron>
        <Neuron NSynapses="1">
          1.2951640730607459e+00 
        </Neuron>
        <Neuron NSynapses="1">
          5.7494688746324230e-01 
        </Neuron>
        <Neuron NSynapses="1">
          -1.5969138907661571e+00 
        </Neuron>
        <Neuron NSynapses="1">
          -2.1083906507286652e+00 
        </Neuron>
        <Neuron NSynapses="1">
          4.4244965716167544e+00 
        </Neuron>
        <Neuron NSynapses="1">
          2.0704291334578713e+00 
        </Neuron>
        <Neuron NSynapses="1">
          -1.3202526929472431e+00 
        </Neuron>
        <Neuron NSynapses="1">
          1.7142452025669717e+00 
        </Neuron>
        <Neuron NSynapses="1">
          -1.0838611370783089e+00 
        </Neuron>
        <Neuron NSynapses="1">
          -9.0969923659287533e-01 
        </Neuron>
        <Neuron NSynapses="1">
          -1.3367765253370667e+00 
        </Neuron>
        <Neuron NSynapses="1">
          1.9678029958830119e+00 
        </Neuron>
      </Layer>
      <Layer Index="2" NNeurons="1">
        <Neuron NSynapses="0"/>
      </Layer>
    </Layout>
  </Weights>
</MethodSetup>
