<?xml version="1.0"?>
<MethodSetup Method="MLP::MLP">
  <GeneralInfo>
    <Info name="TMVA Release" value="4.2.1 [262657]"/>
    <Info name="ROOT Release" value="6.10/05 [395781]"/>
    <Info name="Creator" value="bjoshi"/>
    <Info name="Date" value="Thu Sep 26 14:05:20 2019"/>
    <Info name="Host" value="Linux cmsbuild09.cern.ch 2.6.32-696.1.1.el6.x86_64 #1 SMP Wed Apr 12 08:44:28 CEST 2017 x86_64 x86_64 x86_64 GNU/Linux"/>
    <Info name="Dir" value="/afs/cern.ch/work/b/bjoshi/Analysis/workdirTMVAAnalysisSep_24_2019/Code/CommonUtils/tmva"/>
    <Info name="Training events" value="8961"/>
    <Info name="TrainingTime" value="5.60979309e+01"/>
    <Info name="AnalysisType" value="Classification"/>
  </GeneralInfo>
  <Options>
    <Option name="NCycles" modified="Yes">600</Option>
    <Option name="HiddenLayers" modified="Yes">N+5</Option>
    <Option name="NeuronType" modified="Yes">tanh</Option>
    <Option name="RandomSeed" modified="No">1</Option>
    <Option name="EstimatorType" modified="No">CE</Option>
    <Option name="NeuronInputType" modified="No">sum</Option>
    <Option name="V" modified="Yes">False</Option>
    <Option name="VerbosityLevel" modified="No">Default</Option>
    <Option name="VarTransform" modified="Yes">N</Option>
    <Option name="H" modified="Yes">True</Option>
    <Option name="CreateMVAPdfs" modified="No">False</Option>
    <Option name="IgnoreNegWeightsInTraining" modified="No">False</Option>
    <Option name="TrainingMethod" modified="No">BP</Option>
    <Option name="LearningRate" modified="No">2.000000e-02</Option>
    <Option name="DecayRate" modified="No">1.000000e-02</Option>
    <Option name="TestRate" modified="Yes">5</Option>
    <Option name="EpochMonitoring" modified="No">False</Option>
    <Option name="Sampling" modified="No">1.000000e+00</Option>
    <Option name="SamplingEpoch" modified="No">1.000000e+00</Option>
    <Option name="SamplingImportance" modified="No">1.000000e+00</Option>
    <Option name="SamplingTraining" modified="No">True</Option>
    <Option name="SamplingTesting" modified="No">False</Option>
    <Option name="ResetStep" modified="No">50</Option>
    <Option name="Tau" modified="No">3.000000e+00</Option>
    <Option name="BPMode" modified="No">sequential</Option>
    <Option name="BatchSize" modified="No">-1</Option>
    <Option name="ConvergenceImprove" modified="No">1.000000e-30</Option>
    <Option name="ConvergenceTests" modified="No">-1</Option>
    <Option name="UseRegulator" modified="Yes">False</Option>
    <Option name="UpdateLimit" modified="No">10000</Option>
    <Option name="CalculateErrors" modified="No">False</Option>
    <Option name="WeightRange" modified="No">1.000000e+00</Option>
  </Options>
  <Variables NVar="11">
    <Variable VarIndex="0" Expression="var_vertexKFChi2" Label="var_vertexKFChi2" Title="Variable vertexKFChi2" Unit="units" Internal="var_vertexKFChi2" Type="F" Min="4.93335212e-03" Max="9.87926788e+01"/>
    <Variable VarIndex="1" Expression="var_svpvTauAngle" Label="var_svpvTauAngle" Title="Variable svpvTauAngle" Unit="units" Internal="var_svpvTauAngle" Type="F" Min="1.18228665e-04" Max="1.26206672e+00"/>
    <Variable VarIndex="2" Expression="var_flightLenSig" Label="var_flightLenSig" Title="Variable flightLenSig" Unit="units" Internal="var_flightLenSig" Type="F" Min="5.07751882e-01" Max="1.83871212e+01"/>
    <Variable VarIndex="3" Expression="var_sumMuTrkKinkChi2" Label="var_sumMuTrkKinkChi2" Title="Variable sumMuTrkKinkChi2" Unit="units" Internal="var_sumMuTrkKinkChi2" Type="F" Min="5.65686798e+00" Max="2.76234009e+03"/>
    <Variable VarIndex="4" Expression="var_segCompMuMin" Label="var_segCompMuMin" Title="Variable segCompMuMin" Unit="units" Internal="var_segCompMuMin" Type="F" Min="0.00000000e+00" Max="1.00000000e+00"/>
    <Variable VarIndex="5" Expression="var_MinMIPLikelihood" Label="var_MinMIPLikelihood" Title="Variable MinMIPLikelihood" Unit="units" Internal="var_MinMIPLikelihood" Type="F" Min="1.17318154e-06" Max="9.95340228e-01"/>
    <Variable VarIndex="6" Expression="var_maxdca" Label="var_maxdca" Title="Variable maxdca" Unit="units" Internal="var_maxdca" Type="F" Min="1.25885010e-04" Max="5.06948853e+00"/>
    <Variable VarIndex="7" Expression="var_MuMu_mindR" Label="var_MuMu_mindR" Title="Variable MuMu_mindR" Unit="units" Internal="var_MuMu_mindR" Type="F" Min="1.79446791e-03" Max="3.42327774e-01"/>
    <Variable VarIndex="8" Expression="var_RelPt_Mu1Tau" Label="var_RelPt_Mu1Tau" Title="Variable RelPt_Mu1Tau" Unit="units" Internal="var_RelPt_Mu1Tau" Type="F" Min="5.73893264e-02" Max="8.19301307e-01"/>
    <Variable VarIndex="9" Expression="var_MuMu_minKFChi2" Label="var_MuMu_minKFChi2" Title="Variable MuMu_minKFChi2" Unit="units" Internal="var_MuMu_minKFChi2" Type="F" Min="0.00000000e+00" Max="2.67643604e+01"/>
    <Variable VarIndex="10" Expression="var_MuTau_maxdR" Label="var_MuTau_maxdR" Title="Variable MuTau_maxdR" Unit="units" Internal="var_MuTau_maxdR" Type="F" Min="2.27414561e-03" Max="4.50455219e-01"/>
  </Variables>
  <Spectators NSpec="1">
    <Spectator SpecIndex="0" Expression="var_tauMass" Label="var_tauMass" Title="Variable tauMass" Unit="units" Internal="var_tauMass" Type="F" Min="5.89990795e-01" Max="3.07679439e+00"/>
  </Spectators>
  <Classes NClass="2">
    <Class Name="Signal" Index="0"/>
    <Class Name="Background" Index="1"/>
  </Classes>
  <Transformations NTransformations="1">
    <Transform Name="Normalize">
      <Selection>
        <Input NInputs="11">
          <Input Type="Variable" Label="var_vertexKFChi2" Expression="var_vertexKFChi2"/>
          <Input Type="Variable" Label="var_svpvTauAngle" Expression="var_svpvTauAngle"/>
          <Input Type="Variable" Label="var_flightLenSig" Expression="var_flightLenSig"/>
          <Input Type="Variable" Label="var_sumMuTrkKinkChi2" Expression="var_sumMuTrkKinkChi2"/>
          <Input Type="Variable" Label="var_segCompMuMin" Expression="var_segCompMuMin"/>
          <Input Type="Variable" Label="var_MinMIPLikelihood" Expression="var_MinMIPLikelihood"/>
          <Input Type="Variable" Label="var_maxdca" Expression="var_maxdca"/>
          <Input Type="Variable" Label="var_MuMu_mindR" Expression="var_MuMu_mindR"/>
          <Input Type="Variable" Label="var_RelPt_Mu1Tau" Expression="var_RelPt_Mu1Tau"/>
          <Input Type="Variable" Label="var_MuMu_minKFChi2" Expression="var_MuMu_minKFChi2"/>
          <Input Type="Variable" Label="var_MuTau_maxdR" Expression="var_MuTau_maxdR"/>
        </Input>
        <Output NOutputs="11">
          <Output Type="Variable" Label="var_vertexKFChi2" Expression="var_vertexKFChi2"/>
          <Output Type="Variable" Label="var_svpvTauAngle" Expression="var_svpvTauAngle"/>
          <Output Type="Variable" Label="var_flightLenSig" Expression="var_flightLenSig"/>
          <Output Type="Variable" Label="var_sumMuTrkKinkChi2" Expression="var_sumMuTrkKinkChi2"/>
          <Output Type="Variable" Label="var_segCompMuMin" Expression="var_segCompMuMin"/>
          <Output Type="Variable" Label="var_MinMIPLikelihood" Expression="var_MinMIPLikelihood"/>
          <Output Type="Variable" Label="var_maxdca" Expression="var_maxdca"/>
          <Output Type="Variable" Label="var_MuMu_mindR" Expression="var_MuMu_mindR"/>
          <Output Type="Variable" Label="var_RelPt_Mu1Tau" Expression="var_RelPt_Mu1Tau"/>
          <Output Type="Variable" Label="var_MuMu_minKFChi2" Expression="var_MuMu_minKFChi2"/>
          <Output Type="Variable" Label="var_MuTau_maxdR" Expression="var_MuTau_maxdR"/>
        </Output>
      </Selection>
      <Class ClassIndex="0">
        <Ranges>
          <Range Index="0" Min="4.9333521164953709e-03" Max="9.7805923461914062e+01"/>
          <Range Index="1" Min="1.1822866508737206e-04" Max="3.8474500179290771e-01"/>
          <Range Index="2" Min="7.4648725986480713e-01" Max="1.6034837722778320e+01"/>
          <Range Index="3" Min="5.6568679809570312e+00" Max="1.0151350708007812e+03"/>
          <Range Index="4" Min="0.0000000000000000e+00" Max="1.0000000000000000e+00"/>
          <Range Index="5" Min="5.4336187531589530e-06" Max="9.9534022808074951e-01"/>
          <Range Index="6" Min="1.2588500976562500e-04" Max="5.0694885253906250e+00"/>
          <Range Index="7" Min="1.7944679129868746e-03" Max="3.4232777357101440e-01"/>
          <Range Index="8" Min="5.7389326393604279e-02" Max="8.0537080764770508e-01"/>
          <Range Index="9" Min="0.0000000000000000e+00" Max="2.1661760330200195e+01"/>
          <Range Index="10" Min="2.2741456050425768e-03" Max="3.2145166397094727e-01"/>
        </Ranges>
      </Class>
      <Class ClassIndex="1">
        <Ranges>
          <Range Index="0" Min="3.4416783601045609e-02" Max="9.8792678833007812e+01"/>
          <Range Index="1" Min="4.7860035556368530e-04" Max="1.2620667219161987e+00"/>
          <Range Index="2" Min="5.0775188207626343e-01" Max="1.8387121200561523e+01"/>
          <Range Index="3" Min="6.8401384353637695e+00" Max="2.7623400878906250e+03"/>
          <Range Index="4" Min="0.0000000000000000e+00" Max="1.0000000000000000e+00"/>
          <Range Index="5" Min="1.1731815448001726e-06" Max="9.8301345109939575e-01"/>
          <Range Index="6" Min="1.2116432189941406e-03" Max="3.2882936000823975e+00"/>
          <Range Index="7" Min="2.9539805836975574e-03" Max="3.0279839038848877e-01"/>
          <Range Index="8" Min="6.0817804187536240e-02" Max="8.1930130720138550e-01"/>
          <Range Index="9" Min="0.0000000000000000e+00" Max="2.6764360427856445e+01"/>
          <Range Index="10" Min="5.9958011843264103e-03" Max="4.5045521855354309e-01"/>
        </Ranges>
      </Class>
      <Class ClassIndex="2">
        <Ranges>
          <Range Index="0" Min="4.9333521164953709e-03" Max="9.8792678833007812e+01"/>
          <Range Index="1" Min="1.1822866508737206e-04" Max="1.2620667219161987e+00"/>
          <Range Index="2" Min="5.0775188207626343e-01" Max="1.8387121200561523e+01"/>
          <Range Index="3" Min="5.6568679809570312e+00" Max="2.7623400878906250e+03"/>
          <Range Index="4" Min="0.0000000000000000e+00" Max="1.0000000000000000e+00"/>
          <Range Index="5" Min="1.1731815448001726e-06" Max="9.9534022808074951e-01"/>
          <Range Index="6" Min="1.2588500976562500e-04" Max="5.0694885253906250e+00"/>
          <Range Index="7" Min="1.7944679129868746e-03" Max="3.4232777357101440e-01"/>
          <Range Index="8" Min="5.7389326393604279e-02" Max="8.1930130720138550e-01"/>
          <Range Index="9" Min="0.0000000000000000e+00" Max="2.6764360427856445e+01"/>
          <Range Index="10" Min="2.2741456050425768e-03" Max="4.5045521855354309e-01"/>
        </Ranges>
      </Class>
    </Transform>
  </Transformations>
  <MVAPdfs/>
  <Weights>
    <Layout NLayers="3">
      <Layer Index="0" NNeurons="12">
        <Neuron NSynapses="16">
          -1.4720201199144975e+00 1.2943319234241726e+00 2.3307564548238477e-01 1.7719387002557156e+00 -2.0116539740936585e+00 -7.6838577962640375e-01 -6.3014349164723404e-01 2.7723926269715422e+00 -8.1963414638250809e-01 -1.0666418902010715e+00 -5.5223201468052494e+00 -6.5084160972023264e-01 1.1111552582234589e-01 5.7204256312909352e-01 -3.5701292882315425e-02 1.9088308504309398e-01 
        </Neuron>
        <Neuron NSynapses="16">
          -6.3435557224647809e-01 3.7591969715453799e+00 2.4394906623797539e+00 1.4326749580908260e+00 -6.0200320286948245e-02 -7.1406063428433235e+00 6.0647168108096716e-01 2.0121204679122440e-01 -5.9366523326286169e-01 -6.2212199362011571e+00 -5.9243505799096186e+00 -1.6526933617720991e+00 -1.7771435876120565e+00 4.2546127200088579e-01 2.7575853706473699e+00 5.7614355989347548e+00 
        </Neuron>
        <Neuron NSynapses="16">
          -4.8073199358514407e-01 -4.6431870169969186e-01 1.0927931948479025e-01 -3.3511459121807258e-01 -2.1818382039069131e+00 3.4637623151863646e+00 -1.1628738052691463e+00 3.1692770116604663e-01 6.4050713457506347e-01 -9.3571678377701950e-01 1.1133076409706366e+00 6.1884850450869522e-01 -2.2102629842291380e-01 -1.7079402192605104e+00 -9.2691894988521595e-01 -8.1940177295702477e-01 
        </Neuron>
        <Neuron NSynapses="16">
          1.4889249633044752e+00 1.8964156632742879e-01 4.8085309664310634e+00 1.3606096320964236e+00 -1.7302244625430445e+00 6.7045188165971170e-01 -1.9695328732212565e+00 -8.8639068537176213e-01 -8.9962995684581082e-01 -5.9496512303543074e+00 6.9133928958657753e-01 -8.4184906717700250e-02 -2.5239159634862367e+00 9.5167210646677580e-01 -2.5450277862325821e-01 2.8462955992574259e+00 
        </Neuron>
        <Neuron NSynapses="16">
          2.3395697703749043e+00 1.5415169353406846e-01 -1.7545922455257931e-01 -1.0454844670715497e+00 4.6047772573143225e-01 -3.6584951060308041e-01 -7.3989501890132703e-01 -1.7518402536836020e+00 2.1659028475659811e-01 1.8651645288103288e-01 1.3741998100248812e-01 -3.0144548463186804e-01 -1.6348225053594556e+00 -1.3529797711681502e+00 -7.8653256468058663e-01 -3.7261872068919411e-01 
        </Neuron>
        <Neuron NSynapses="16">
          4.8001822763858915e-01 -1.1748565657745651e-01 -2.2143258386781409e-01 -1.0245171864423455e+00 4.0832516844942879e-01 1.6455095584066579e-01 1.0893819508932354e+00 -3.4466051941537817e-01 -5.7041686649329748e-01 2.9145195719881334e-02 -3.8171684054280131e-01 -9.6996923158137308e-02 5.9422179769924999e-01 -2.1023958401937670e+00 -3.7378966023651200e-01 -3.0720122812540451e-01 
        </Neuron>
        <Neuron NSynapses="16">
          -6.6007004215270615e-01 -3.1030047488987056e+00 -2.0386642410458080e+00 1.5510124059338487e-01 -2.1789656214280266e+00 -2.2587900026462218e+00 5.8558317179689190e-01 1.4834858253263035e+00 -5.9070592229804098e-01 5.0333472390817435e-01 1.2091040411078260e+00 -1.6976208421345504e+00 -2.2032057698571011e-01 6.2286712125930643e-01 -2.0142745985374653e+00 9.5164557961720497e-01 
        </Neuron>
        <Neuron NSynapses="16">
          1.4223196480126148e+00 -8.7962821664376123e-01 -3.3150497451056666e+00 1.6169828866319087e+00 7.6392092062972250e-01 6.0611755956785218e-01 6.8456209880581320e-01 -1.4509332482094139e+00 -1.9109430705890020e+00 -4.1975997912982504e-01 -4.1290995621345461e-01 1.1629410124235475e+00 2.6552760671168640e-01 1.3030428900135110e-01 -1.1305026416353849e+00 9.8452888268834124e-02 
        </Neuron>
        <Neuron NSynapses="16">
          -1.1638372670908467e-01 -9.1025556794073481e-02 -1.0183487516399756e+00 -1.9337677644147842e+00 4.6874904633192227e-01 -2.1713998573472235e-01 4.3585386129080202e-02 2.9687344641738354e+00 3.2152126554529010e+00 -8.1673538534153500e-01 3.1759306427265005e-01 1.1541340149725539e+00 -1.2250707029377372e+00 -8.8189022538232720e-01 -1.2854259232729459e+00 6.6776992445416253e-02 
        </Neuron>
        <Neuron NSynapses="16">
          -1.3504465923086943e+00 -8.0320856984198108e-01 2.2906694273418799e+00 -4.2400617380911776e-01 -8.6545631867042372e-01 -2.3171184466911718e-01 -1.4263590787054243e+00 -4.9029089095958239e-01 1.7835825374765923e+00 1.1582721705501764e+00 2.7517238263816757e+00 -4.4363662961558631e-01 9.0615819560424771e-01 1.2882852811424474e+00 5.6258913752008510e-01 -3.0695276967181728e-01 
        </Neuron>
        <Neuron NSynapses="16">
          1.5802199488446549e+00 3.8587922071705999e-01 1.3421697935884935e+00 5.9449207830467943e-01 8.4955971889487358e-01 -2.9202942635886603e-02 -6.9332367407424778e-01 8.5563604555308981e-01 -1.5064683898697624e+00 -2.5050567078867292e-01 -1.0978812365380397e-01 5.0799675076078099e-01 -1.2751511319834048e+00 1.1349970784579846e+00 4.1194124601715671e+00 -1.4627126200095049e+00 
        </Neuron>
        <Neuron NSynapses="16">
          -3.3258368758091778e-01 -6.8098584639992354e-01 5.5111889401490659e+00 -1.7494381929393472e+00 -1.4910926432907801e+00 -6.7225658312100798e+00 1.9249339610392859e+00 -1.5337110937663774e+00 -6.3011407192667923e-01 -1.2158672695961206e+01 -6.9000530677915517e+00 2.5734561627737009e+00 -1.2586828499701344e+00 -8.0367440380183908e-01 3.0538722689948896e+00 8.4984233283799639e+00 
        </Neuron>
      </Layer>
      <Layer Index="1" NNeurons="17">
        <Neuron NSynapses="1">
          1.8244457491909372e-01 
        </Neuron>
        <Neuron NSynapses="1">
          2.8278557191926614e+00 
        </Neuron>
        <Neuron NSynapses="1">
          -1.5111482589600878e+00 
        </Neuron>
        <Neuron NSynapses="1">
          -9.9407656338367656e-01 
        </Neuron>
        <Neuron NSynapses="1">
          -2.8254104154174571e+00 
        </Neuron>
        <Neuron NSynapses="1">
          1.1188437604070269e+00 
        </Neuron>
        <Neuron NSynapses="1">
          4.2603979910570355e-01 
        </Neuron>
        <Neuron NSynapses="1">
          -2.2218856671236717e+00 
        </Neuron>
        <Neuron NSynapses="1">
          4.7952015085849226e-01 
        </Neuron>
        <Neuron NSynapses="1">
          2.7033683432435147e+00 
        </Neuron>
        <Neuron NSynapses="1">
          2.0790311015174172e+00 
        </Neuron>
        <Neuron NSynapses="1">
          -1.4722716255531689e+00 
        </Neuron>
        <Neuron NSynapses="1">
          2.0313100721268875e+00 
        </Neuron>
        <Neuron NSynapses="1">
          -1.2410706371966815e+00 
        </Neuron>
        <Neuron NSynapses="1">
          -6.0578569746736954e-01 
        </Neuron>
        <Neuron NSynapses="1">
          -2.0151228003348565e+00 
        </Neuron>
        <Neuron NSynapses="1">
          1.8598640648009039e+00 
        </Neuron>
      </Layer>
      <Layer Index="2" NNeurons="1">
        <Neuron NSynapses="0"/>
      </Layer>
    </Layout>
  </Weights>
</MethodSetup>
