<?xml version="1.0"?>
<MethodSetup Method="MLP::MLP">
  <GeneralInfo>
    <Info name="TMVA Release" value="4.2.1 [262657]"/>
    <Info name="ROOT Release" value="6.10/05 [395781]"/>
    <Info name="Creator" value="bjoshi"/>
    <Info name="Date" value="Wed Sep 25 21:22:50 2019"/>
    <Info name="Host" value="Linux cmsbuild09.cern.ch 2.6.32-696.1.1.el6.x86_64 #1 SMP Wed Apr 12 08:44:28 CEST 2017 x86_64 x86_64 x86_64 GNU/Linux"/>
    <Info name="Dir" value="/afs/cern.ch/work/b/bjoshi/Analysis/workdirTMVAAnalysisSep_24_2019/Code/CommonUtils/tmva"/>
    <Info name="Training events" value="13617"/>
    <Info name="TrainingTime" value="7.14253290e+01"/>
    <Info name="AnalysisType" value="Classification"/>
  </GeneralInfo>
  <Options>
    <Option name="NCycles" modified="Yes">600</Option>
    <Option name="HiddenLayers" modified="Yes">N+5</Option>
    <Option name="NeuronType" modified="Yes">tanh</Option>
    <Option name="RandomSeed" modified="No">1</Option>
    <Option name="EstimatorType" modified="No">CE</Option>
    <Option name="NeuronInputType" modified="No">sum</Option>
    <Option name="V" modified="Yes">False</Option>
    <Option name="VerbosityLevel" modified="No">Default</Option>
    <Option name="VarTransform" modified="Yes">N</Option>
    <Option name="H" modified="Yes">True</Option>
    <Option name="CreateMVAPdfs" modified="No">False</Option>
    <Option name="IgnoreNegWeightsInTraining" modified="No">False</Option>
    <Option name="TrainingMethod" modified="No">BP</Option>
    <Option name="LearningRate" modified="No">2.000000e-02</Option>
    <Option name="DecayRate" modified="No">1.000000e-02</Option>
    <Option name="TestRate" modified="Yes">5</Option>
    <Option name="EpochMonitoring" modified="No">False</Option>
    <Option name="Sampling" modified="No">1.000000e+00</Option>
    <Option name="SamplingEpoch" modified="No">1.000000e+00</Option>
    <Option name="SamplingImportance" modified="No">1.000000e+00</Option>
    <Option name="SamplingTraining" modified="No">True</Option>
    <Option name="SamplingTesting" modified="No">False</Option>
    <Option name="ResetStep" modified="No">50</Option>
    <Option name="Tau" modified="No">3.000000e+00</Option>
    <Option name="BPMode" modified="No">sequential</Option>
    <Option name="BatchSize" modified="No">-1</Option>
    <Option name="ConvergenceImprove" modified="No">1.000000e-30</Option>
    <Option name="ConvergenceTests" modified="No">-1</Option>
    <Option name="UseRegulator" modified="Yes">False</Option>
    <Option name="UpdateLimit" modified="No">10000</Option>
    <Option name="CalculateErrors" modified="No">False</Option>
    <Option name="WeightRange" modified="No">1.000000e+00</Option>
  </Options>
  <Variables NVar="12">
    <Variable VarIndex="0" Expression="var_vertexKFChi2" Label="var_vertexKFChi2" Title="Variable vertexKFChi2" Unit="units" Internal="var_vertexKFChi2" Type="F" Min="7.76610977e-04" Max="9.96464615e+01"/>
    <Variable VarIndex="1" Expression="var_svpvTauAngle" Label="var_svpvTauAngle" Title="Variable svpvTauAngle" Unit="units" Internal="var_svpvTauAngle" Type="F" Min="7.60861585e-05" Max="2.91471839e+00"/>
    <Variable VarIndex="2" Expression="var_flightLenSig" Label="var_flightLenSig" Title="Variable flightLenSig" Unit="units" Internal="var_flightLenSig" Type="F" Min="2.43194431e-01" Max="1.78888702e+01"/>
    <Variable VarIndex="3" Expression="var_sumMuTrkKinkChi2" Label="var_sumMuTrkKinkChi2" Title="Variable sumMuTrkKinkChi2" Unit="units" Internal="var_sumMuTrkKinkChi2" Type="F" Min="5.33973217e+00" Max="5.91793262e+03"/>
    <Variable VarIndex="4" Expression="var_segCompMuMin" Label="var_segCompMuMin" Title="Variable segCompMuMin" Unit="units" Internal="var_segCompMuMin" Type="F" Min="0.00000000e+00" Max="1.00000000e+00"/>
    <Variable VarIndex="5" Expression="var_MinMIPLikelihood" Label="var_MinMIPLikelihood" Title="Variable MinMIPLikelihood" Unit="units" Internal="var_MinMIPLikelihood" Type="F" Min="1.46913897e-06" Max="9.94346261e-01"/>
    <Variable VarIndex="6" Expression="var_maxdca" Label="var_maxdca" Title="Variable maxdca" Unit="units" Internal="var_maxdca" Type="F" Min="3.84330750e-04" Max="8.93824005e+00"/>
    <Variable VarIndex="7" Expression="var_MuMu_mindR" Label="var_MuMu_mindR" Title="Variable MuMu_mindR" Unit="units" Internal="var_MuMu_mindR" Type="F" Min="3.69928312e-04" Max="3.39652687e-01"/>
    <Variable VarIndex="8" Expression="var_RelPt_Mu1Tau" Label="var_RelPt_Mu1Tau" Title="Variable RelPt_Mu1Tau" Unit="units" Internal="var_RelPt_Mu1Tau" Type="F" Min="3.69350240e-02" Max="8.84612858e-01"/>
    <Variable VarIndex="9" Expression="var_Eta_au" Label="var_Eta_au" Title="Variable Eta_au" Unit="units" Internal="var_Eta_au" Type="F" Min="-2.39992595e+00" Max="2.39940000e+00"/>
    <Variable VarIndex="10" Expression="var_MuMu_minKFChi2" Label="var_MuMu_minKFChi2" Title="Variable MuMu_minKFChi2" Unit="units" Internal="var_MuMu_minKFChi2" Type="F" Min="0.00000000e+00" Max="2.68461037e+01"/>
    <Variable VarIndex="11" Expression="var_MuTau_maxdR" Label="var_MuTau_maxdR" Title="Variable MuTau_maxdR" Unit="units" Internal="var_MuTau_maxdR" Type="F" Min="1.81391253e-03" Max="4.32211965e-01"/>
  </Variables>
  <Spectators NSpec="1">
    <Spectator SpecIndex="0" Expression="var_tauMass" Label="var_tauMass" Title="Variable tauMass" Unit="units" Internal="var_tauMass" Type="F" Min="6.00327790e-01" Max="3.68828702e+00"/>
  </Spectators>
  <Classes NClass="2">
    <Class Name="Signal" Index="0"/>
    <Class Name="Background" Index="1"/>
  </Classes>
  <Transformations NTransformations="1">
    <Transform Name="Normalize">
      <Selection>
        <Input NInputs="12">
          <Input Type="Variable" Label="var_vertexKFChi2" Expression="var_vertexKFChi2"/>
          <Input Type="Variable" Label="var_svpvTauAngle" Expression="var_svpvTauAngle"/>
          <Input Type="Variable" Label="var_flightLenSig" Expression="var_flightLenSig"/>
          <Input Type="Variable" Label="var_sumMuTrkKinkChi2" Expression="var_sumMuTrkKinkChi2"/>
          <Input Type="Variable" Label="var_segCompMuMin" Expression="var_segCompMuMin"/>
          <Input Type="Variable" Label="var_MinMIPLikelihood" Expression="var_MinMIPLikelihood"/>
          <Input Type="Variable" Label="var_maxdca" Expression="var_maxdca"/>
          <Input Type="Variable" Label="var_MuMu_mindR" Expression="var_MuMu_mindR"/>
          <Input Type="Variable" Label="var_RelPt_Mu1Tau" Expression="var_RelPt_Mu1Tau"/>
          <Input Type="Variable" Label="var_Eta_au" Expression="var_Eta_au"/>
          <Input Type="Variable" Label="var_MuMu_minKFChi2" Expression="var_MuMu_minKFChi2"/>
          <Input Type="Variable" Label="var_MuTau_maxdR" Expression="var_MuTau_maxdR"/>
        </Input>
        <Output NOutputs="12">
          <Output Type="Variable" Label="var_vertexKFChi2" Expression="var_vertexKFChi2"/>
          <Output Type="Variable" Label="var_svpvTauAngle" Expression="var_svpvTauAngle"/>
          <Output Type="Variable" Label="var_flightLenSig" Expression="var_flightLenSig"/>
          <Output Type="Variable" Label="var_sumMuTrkKinkChi2" Expression="var_sumMuTrkKinkChi2"/>
          <Output Type="Variable" Label="var_segCompMuMin" Expression="var_segCompMuMin"/>
          <Output Type="Variable" Label="var_MinMIPLikelihood" Expression="var_MinMIPLikelihood"/>
          <Output Type="Variable" Label="var_maxdca" Expression="var_maxdca"/>
          <Output Type="Variable" Label="var_MuMu_mindR" Expression="var_MuMu_mindR"/>
          <Output Type="Variable" Label="var_RelPt_Mu1Tau" Expression="var_RelPt_Mu1Tau"/>
          <Output Type="Variable" Label="var_Eta_au" Expression="var_Eta_au"/>
          <Output Type="Variable" Label="var_MuMu_minKFChi2" Expression="var_MuMu_minKFChi2"/>
          <Output Type="Variable" Label="var_MuTau_maxdR" Expression="var_MuTau_maxdR"/>
        </Output>
      </Selection>
      <Class ClassIndex="0">
        <Ranges>
          <Range Index="0" Min="3.8381470367312431e-03" Max="9.9646461486816406e+01"/>
          <Range Index="1" Min="1.1483516573207453e-04" Max="4.8857113718986511e-01"/>
          <Range Index="2" Min="8.9262747764587402e-01" Max="1.6504142761230469e+01"/>
          <Range Index="3" Min="7.6331119537353516e+00" Max="1.0319599609375000e+03"/>
          <Range Index="4" Min="0.0000000000000000e+00" Max="1.0000000000000000e+00"/>
          <Range Index="5" Min="1.4850847946945578e-06" Max="9.9321413040161133e-01"/>
          <Range Index="6" Min="3.8433074951171875e-04" Max="3.6762266159057617e+00"/>
          <Range Index="7" Min="2.3647826164960861e-03" Max="3.1333741545677185e-01"/>
          <Range Index="8" Min="4.1875630617141724e-02" Max="8.4894073009490967e-01"/>
          <Range Index="9" Min="-2.3909220695495605e+00" Max="2.3926413059234619e+00"/>
          <Range Index="10" Min="0.0000000000000000e+00" Max="2.0598953247070312e+01"/>
          <Range Index="11" Min="3.7478967569768429e-03" Max="4.1910237073898315e-01"/>
        </Ranges>
      </Class>
      <Class ClassIndex="1">
        <Ranges>
          <Range Index="0" Min="7.7661097748205066e-04" Max="9.9634361267089844e+01"/>
          <Range Index="1" Min="7.6086158514954150e-05" Max="2.9147183895111084e+00"/>
          <Range Index="2" Min="2.4319443106651306e-01" Max="1.7888870239257812e+01"/>
          <Range Index="3" Min="5.3397321701049805e+00" Max="5.9179326171875000e+03"/>
          <Range Index="4" Min="0.0000000000000000e+00" Max="1.0000000000000000e+00"/>
          <Range Index="5" Min="1.4691389651488862e-06" Max="9.9434626102447510e-01"/>
          <Range Index="6" Min="3.9768218994140625e-04" Max="8.9382400512695312e+00"/>
          <Range Index="7" Min="3.6992831155657768e-04" Max="3.3965268731117249e-01"/>
          <Range Index="8" Min="3.6935023963451385e-02" Max="8.8461285829544067e-01"/>
          <Range Index="9" Min="-2.3999259471893311e+00" Max="2.3993999958038330e+00"/>
          <Range Index="10" Min="0.0000000000000000e+00" Max="2.6846103668212891e+01"/>
          <Range Index="11" Min="1.8139125313609838e-03" Max="4.3221196532249451e-01"/>
        </Ranges>
      </Class>
      <Class ClassIndex="2">
        <Ranges>
          <Range Index="0" Min="7.7661097748205066e-04" Max="9.9646461486816406e+01"/>
          <Range Index="1" Min="7.6086158514954150e-05" Max="2.9147183895111084e+00"/>
          <Range Index="2" Min="2.4319443106651306e-01" Max="1.7888870239257812e+01"/>
          <Range Index="3" Min="5.3397321701049805e+00" Max="5.9179326171875000e+03"/>
          <Range Index="4" Min="0.0000000000000000e+00" Max="1.0000000000000000e+00"/>
          <Range Index="5" Min="1.4691389651488862e-06" Max="9.9434626102447510e-01"/>
          <Range Index="6" Min="3.8433074951171875e-04" Max="8.9382400512695312e+00"/>
          <Range Index="7" Min="3.6992831155657768e-04" Max="3.3965268731117249e-01"/>
          <Range Index="8" Min="3.6935023963451385e-02" Max="8.8461285829544067e-01"/>
          <Range Index="9" Min="-2.3999259471893311e+00" Max="2.3993999958038330e+00"/>
          <Range Index="10" Min="0.0000000000000000e+00" Max="2.6846103668212891e+01"/>
          <Range Index="11" Min="1.8139125313609838e-03" Max="4.3221196532249451e-01"/>
        </Ranges>
      </Class>
    </Transform>
  </Transformations>
  <MVAPdfs/>
  <Weights>
    <Layout NLayers="3">
      <Layer Index="0" NNeurons="13">
        <Neuron NSynapses="17">
          4.1902771323943244e-01 3.9293275645602139e+00 1.0359379874985086e+00 5.3793476805682938e-01 -9.3399509499716016e-01 -1.5343026732831415e+00 -4.4217357176243988e-01 2.6084787365652939e-01 -6.2826050060429262e-01 -8.6994607354239384e-01 -1.0619404174742482e+00 2.6904302643106792e+00 1.0962365044221541e-01 -1.0480872529457236e-01 -9.6065977698617477e-01 1.0242968311589997e+00 -1.7033749007792656e+00 
        </Neuron>
        <Neuron NSynapses="17">
          5.2627730366728169e+00 1.0615904774038105e+01 1.9152922450442802e+00 -1.6103411125824718e-01 5.1747203903677690e+00 -1.8938889489188144e+00 -1.8167136254748206e+00 -9.8022543125402617e-01 5.5425880947032768e-01 4.7933729193843033e-02 -8.1996415483756702e-01 -8.7545006665279068e+00 5.5579567128963425e-01 6.9567951034174491e-01 8.9762661718847647e-01 6.4980741468906955e-01 -5.0569406952958873e-01 
        </Neuron>
        <Neuron NSynapses="17">
          -6.3809459002401459e-01 9.7177803637083310e-02 -1.0579632125474936e+00 1.6260714521918596e+00 -7.3044245187263335e-01 3.3472735353081027e+00 -1.8662933461384562e-01 1.2531638704537802e+00 2.3599139955474153e+00 3.6163488870036820e-01 -1.0120461630802844e+00 -3.2766816298533413e-01 -4.7664646314478404e-01 1.0266604910093615e+00 9.7897622994910460e-01 9.2674802198426376e-01 2.4878897308007959e+00 
        </Neuron>
        <Neuron NSynapses="17">
          1.7120527016876026e+00 -1.0744123825481631e+00 1.8177981140810167e+00 -1.5064662497673078e+00 1.0189489175788831e+00 -2.2779077163137225e+00 5.8088046164455376e-01 1.9535916527979718e+00 8.0812487032913660e-01 -2.3057146711034391e+00 3.5033849013137974e-01 -3.3858237429072813e+00 8.6281183524023064e-01 2.2683800070804594e+00 -1.0919428958655941e+00 2.1931801699544753e-01 -1.1530425698909248e+00 
        </Neuron>
        <Neuron NSynapses="17">
          4.2750298920953461e-01 -1.7264418969632622e-01 -4.0631974141874277e-01 -3.3093653141850796e-02 -4.3626687050302003e-02 1.1447267726629036e+00 6.7772192822823190e+00 -1.7815697052719801e+00 -1.5889657689727339e+00 -9.5460475794157507e-02 6.6381233695319641e-01 -3.2692841075252971e-01 1.6058029532957503e+00 1.5404228250291172e+00 8.3761997130538579e-01 4.0840222361009548e-01 -8.4419773994797231e-01 
        </Neuron>
        <Neuron NSynapses="17">
          1.2761187952389597e-01 -9.9991620609534523e-02 -7.3332761297817528e-01 9.2157782807471125e-02 1.3054085615310879e-01 -1.9332805672605907e-01 3.4595004790318112e-01 2.3416370078058149e-01 -2.8269243865790576e+00 -1.1878371151513741e-01 1.6775648165973862e+00 -1.0456025571728679e-01 -2.9716727122719697e+00 8.9144528801285525e-02 7.5149200773729163e-02 -2.5760070170559493e+00 -1.3080750718867269e+00 
        </Neuron>
        <Neuron NSynapses="17">
          -3.0773319040569463e-01 1.1321211466946682e-01 -6.2683296303277691e-01 1.7333313842844178e+00 1.6788355994888684e+00 -2.4511731363543143e+00 -9.9045078944265327e-02 3.9244429148012117e-01 -1.2678717698443238e+00 -1.7255554983261032e+00 7.1428220940931009e-01 1.8337578924480611e+00 -1.7235415303761259e+00 2.7836483923685496e-01 -3.5366446640397481e-01 -5.1812400242771073e-01 6.9909825822122595e-01 
        </Neuron>
        <Neuron NSynapses="17">
          -2.3173078658310495e-01 -5.5011196682971976e-02 3.8019400970241857e-01 -3.3277082246999967e-01 -2.1553209784222499e-01 1.0303034363483694e+00 8.8190244674258123e-02 -5.3156087357416348e-01 -1.1444037102668880e+00 -2.5811434623622684e+00 9.6909652542884106e-01 -2.1330117629684997e-01 -9.1138696685426401e-01 6.2706032794266697e-01 -1.4953275057861750e+00 -6.6734048008978461e-02 6.2679435728835331e-01 
        </Neuron>
        <Neuron NSynapses="17">
          4.9242439036056522e+00 -3.7164930963107558e-02 2.9918992395554928e-01 2.4090454643153922e+00 3.1617270620465937e-01 5.1372623368846893e-01 7.7892727995599334e-02 5.5362344390317952e-01 -1.0987994892025466e+00 5.2392670506162442e-01 5.5294130714414402e-01 3.1034047387654501e-02 -1.4999665021659276e+00 5.8095303077229865e-01 -1.0812814653787908e+00 4.2206279600777730e-01 1.1899228749720894e+00 
        </Neuron>
        <Neuron NSynapses="17">
          5.8298685696937955e-02 1.8827086135492485e-02 1.3648443823577652e-01 1.3527161893086055e+00 -9.2174418374337097e-02 -4.4839616106481267e-01 -3.7131694397941561e-02 4.3799740225180281e-02 -1.2893155877632853e-02 8.3303914465987616e-02 1.7142476160004105e+00 2.7560317391909950e-02 -6.7200392623468563e-01 -2.9377125793088013e+00 6.5911721129849898e-01 -1.7659452722400522e+00 -5.2000599287540883e-01 
        </Neuron>
        <Neuron NSynapses="17">
          -3.5109114138376590e-01 -3.5563231644800203e-01 2.4807895951119735e-01 2.4416227648581339e+00 1.9838151731659150e+00 1.1666210048273387e+00 1.0298092707929649e+00 -6.9421244499046830e-01 2.3962468833228429e-01 6.9533420571376525e-01 -1.0863203112798121e+00 1.7160205315572599e+00 1.7462812806278474e+00 -1.4556303928237131e+00 -1.0357319036294104e+00 -1.1435861888984124e-01 2.4946249313591407e-01 
        </Neuron>
        <Neuron NSynapses="17">
          3.6418588071240441e+00 3.1591869743301901e-02 -2.1441234635300521e-01 -1.8524004380187347e+00 -2.1629675872193133e-01 -3.6279308867350546e-01 1.5998161539498756e-01 3.8620050404841511e-02 -6.1767325466590706e-01 9.5414557851575682e-02 3.0486807735442287e+00 -2.8374313066258119e-02 -9.4178214039933428e-01 -3.0715325378154745e-01 -1.8231837011248242e-01 -6.5662512882945645e-01 -1.5647089062790360e+00 
        </Neuron>
        <Neuron NSynapses="17">
          5.4642345921235407e+00 1.2975395314947219e+01 -1.1558796782819067e+00 -6.8847056859224531e-01 8.3117201374863310e+00 -3.9531604449052189e+00 -5.3201611004304494e+00 2.7893368375565286e-01 -1.0347614588750413e+00 -3.0087112533911657e+00 2.4480322911527908e+00 -6.1468811349056081e+00 1.4457507326497483e+00 -1.4286708708073934e+00 2.7756333048840887e+00 -1.0345753857789148e+00 -2.2017144187513300e+00 
        </Neuron>
      </Layer>
      <Layer Index="1" NNeurons="18">
        <Neuron NSynapses="1">
          -3.2051678574581364e+00 
        </Neuron>
        <Neuron NSynapses="1">
          -4.5893217933479242e+00 
        </Neuron>
        <Neuron NSynapses="1">
          5.3990745357625425e-01 
        </Neuron>
        <Neuron NSynapses="1">
          1.1495424789845037e+00 
        </Neuron>
        <Neuron NSynapses="1">
          -2.6413809477165557e+00 
        </Neuron>
        <Neuron NSynapses="1">
          1.0004360020860201e+00 
        </Neuron>
        <Neuron NSynapses="1">
          7.8198180954984575e-01 
        </Neuron>
        <Neuron NSynapses="1">
          -1.4027514386559305e+00 
        </Neuron>
        <Neuron NSynapses="1">
          -4.4174115180218854e-01 
        </Neuron>
        <Neuron NSynapses="1">
          1.7551547993741219e+00 
        </Neuron>
        <Neuron NSynapses="1">
          -5.0985974549438218e-01 
        </Neuron>
        <Neuron NSynapses="1">
          3.2996565842141532e+00 
        </Neuron>
        <Neuron NSynapses="1">
          -5.6489037896485383e-01 
        </Neuron>
        <Neuron NSynapses="1">
          1.0450850163225811e+00 
        </Neuron>
        <Neuron NSynapses="1">
          -1.3894375524742877e+00 
        </Neuron>
        <Neuron NSynapses="1">
          -5.9326804460173577e-01 
        </Neuron>
        <Neuron NSynapses="1">
          4.7017340325033524e-01 
        </Neuron>
        <Neuron NSynapses="1">
          -1.6986056839351038e+00 
        </Neuron>
      </Layer>
      <Layer Index="2" NNeurons="1">
        <Neuron NSynapses="0"/>
      </Layer>
    </Layout>
  </Weights>
</MethodSetup>
