<?xml version="1.0"?>
<MethodSetup Method="MLP::MLP">
  <GeneralInfo>
    <Info name="TMVA Release" value="4.2.1 [262657]"/>
    <Info name="ROOT Release" value="6.10/05 [395781]"/>
    <Info name="Creator" value="bjoshi"/>
    <Info name="Date" value="Wed Sep 25 21:19:42 2019"/>
    <Info name="Host" value="Linux cmsbuild09.cern.ch 2.6.32-696.1.1.el6.x86_64 #1 SMP Wed Apr 12 08:44:28 CEST 2017 x86_64 x86_64 x86_64 GNU/Linux"/>
    <Info name="Dir" value="/afs/cern.ch/work/b/bjoshi/Analysis/workdirTMVAAnalysisSep_24_2019/Code/CommonUtils/tmva"/>
    <Info name="Training events" value="8110"/>
    <Info name="TrainingTime" value="4.30883610e+01"/>
    <Info name="AnalysisType" value="Classification"/>
  </GeneralInfo>
  <Options>
    <Option name="NCycles" modified="Yes">600</Option>
    <Option name="HiddenLayers" modified="Yes">N+5</Option>
    <Option name="NeuronType" modified="Yes">tanh</Option>
    <Option name="RandomSeed" modified="No">1</Option>
    <Option name="EstimatorType" modified="No">CE</Option>
    <Option name="NeuronInputType" modified="No">sum</Option>
    <Option name="V" modified="Yes">False</Option>
    <Option name="VerbosityLevel" modified="No">Default</Option>
    <Option name="VarTransform" modified="Yes">N</Option>
    <Option name="H" modified="Yes">True</Option>
    <Option name="CreateMVAPdfs" modified="No">False</Option>
    <Option name="IgnoreNegWeightsInTraining" modified="No">False</Option>
    <Option name="TrainingMethod" modified="No">BP</Option>
    <Option name="LearningRate" modified="No">2.000000e-02</Option>
    <Option name="DecayRate" modified="No">1.000000e-02</Option>
    <Option name="TestRate" modified="Yes">5</Option>
    <Option name="EpochMonitoring" modified="No">False</Option>
    <Option name="Sampling" modified="No">1.000000e+00</Option>
    <Option name="SamplingEpoch" modified="No">1.000000e+00</Option>
    <Option name="SamplingImportance" modified="No">1.000000e+00</Option>
    <Option name="SamplingTraining" modified="No">True</Option>
    <Option name="SamplingTesting" modified="No">False</Option>
    <Option name="ResetStep" modified="No">50</Option>
    <Option name="Tau" modified="No">3.000000e+00</Option>
    <Option name="BPMode" modified="No">sequential</Option>
    <Option name="BatchSize" modified="No">-1</Option>
    <Option name="ConvergenceImprove" modified="No">1.000000e-30</Option>
    <Option name="ConvergenceTests" modified="No">-1</Option>
    <Option name="UseRegulator" modified="Yes">False</Option>
    <Option name="UpdateLimit" modified="No">10000</Option>
    <Option name="CalculateErrors" modified="No">False</Option>
    <Option name="WeightRange" modified="No">1.000000e+00</Option>
  </Options>
  <Variables NVar="12">
    <Variable VarIndex="0" Expression="var_vertexKFChi2" Label="var_vertexKFChi2" Title="Variable vertexKFChi2" Unit="units" Internal="var_vertexKFChi2" Type="F" Min="6.68902975e-03" Max="9.95546112e+01"/>
    <Variable VarIndex="1" Expression="var_svpvTauAngle" Label="var_svpvTauAngle" Title="Variable svpvTauAngle" Unit="units" Internal="var_svpvTauAngle" Type="F" Min="2.47367367e-04" Max="2.39580035e+00"/>
    <Variable VarIndex="2" Expression="var_flightLenSig" Label="var_flightLenSig" Title="Variable flightLenSig" Unit="units" Internal="var_flightLenSig" Type="F" Min="5.50786614e-01" Max="3.22959480e+01"/>
    <Variable VarIndex="3" Expression="var_sumMuTrkKinkChi2" Label="var_sumMuTrkKinkChi2" Title="Variable sumMuTrkKinkChi2" Unit="units" Internal="var_sumMuTrkKinkChi2" Type="F" Min="5.59769440e+00" Max="2.38289844e+03"/>
    <Variable VarIndex="4" Expression="var_segCompMuMin" Label="var_segCompMuMin" Title="Variable segCompMuMin" Unit="units" Internal="var_segCompMuMin" Type="F" Min="0.00000000e+00" Max="1.00000000e+00"/>
    <Variable VarIndex="5" Expression="var_MinMIPLikelihood" Label="var_MinMIPLikelihood" Title="Variable MinMIPLikelihood" Unit="units" Internal="var_MinMIPLikelihood" Type="F" Min="4.33052173e-06" Max="9.94934857e-01"/>
    <Variable VarIndex="6" Expression="var_maxdca" Label="var_maxdca" Title="Variable maxdca" Unit="units" Internal="var_maxdca" Type="F" Min="1.29699707e-04" Max="1.93453884e+00"/>
    <Variable VarIndex="7" Expression="var_MuMu_mindR" Label="var_MuMu_mindR" Title="Variable MuMu_mindR" Unit="units" Internal="var_MuMu_mindR" Type="F" Min="1.63838011e-03" Max="2.93953955e-01"/>
    <Variable VarIndex="8" Expression="var_RelPt_Mu1Tau" Label="var_RelPt_Mu1Tau" Title="Variable RelPt_Mu1Tau" Unit="units" Internal="var_RelPt_Mu1Tau" Type="F" Min="7.67099634e-02" Max="8.05672526e-01"/>
    <Variable VarIndex="9" Expression="var_Eta_au" Label="var_Eta_au" Title="Variable Eta_au" Unit="units" Internal="var_Eta_au" Type="F" Min="-1.42030430e+00" Max="1.03150892e+00"/>
    <Variable VarIndex="10" Expression="var_MuMu_minKFChi2" Label="var_MuMu_minKFChi2" Title="Variable MuMu_minKFChi2" Unit="units" Internal="var_MuMu_minKFChi2" Type="F" Min="0.00000000e+00" Max="2.24364052e+01"/>
    <Variable VarIndex="11" Expression="var_MuTau_maxdR" Label="var_MuTau_maxdR" Title="Variable MuTau_maxdR" Unit="units" Internal="var_MuTau_maxdR" Type="F" Min="1.94587640e-03" Max="2.36265391e-01"/>
  </Variables>
  <Spectators NSpec="1">
    <Spectator SpecIndex="0" Expression="var_tauMass" Label="var_tauMass" Title="Variable tauMass" Unit="units" Internal="var_tauMass" Type="F" Min="8.67136776e-01" Max="3.10014224e+00"/>
  </Spectators>
  <Classes NClass="2">
    <Class Name="Signal" Index="0"/>
    <Class Name="Background" Index="1"/>
  </Classes>
  <Transformations NTransformations="1">
    <Transform Name="Normalize">
      <Selection>
        <Input NInputs="12">
          <Input Type="Variable" Label="var_vertexKFChi2" Expression="var_vertexKFChi2"/>
          <Input Type="Variable" Label="var_svpvTauAngle" Expression="var_svpvTauAngle"/>
          <Input Type="Variable" Label="var_flightLenSig" Expression="var_flightLenSig"/>
          <Input Type="Variable" Label="var_sumMuTrkKinkChi2" Expression="var_sumMuTrkKinkChi2"/>
          <Input Type="Variable" Label="var_segCompMuMin" Expression="var_segCompMuMin"/>
          <Input Type="Variable" Label="var_MinMIPLikelihood" Expression="var_MinMIPLikelihood"/>
          <Input Type="Variable" Label="var_maxdca" Expression="var_maxdca"/>
          <Input Type="Variable" Label="var_MuMu_mindR" Expression="var_MuMu_mindR"/>
          <Input Type="Variable" Label="var_RelPt_Mu1Tau" Expression="var_RelPt_Mu1Tau"/>
          <Input Type="Variable" Label="var_Eta_au" Expression="var_Eta_au"/>
          <Input Type="Variable" Label="var_MuMu_minKFChi2" Expression="var_MuMu_minKFChi2"/>
          <Input Type="Variable" Label="var_MuTau_maxdR" Expression="var_MuTau_maxdR"/>
        </Input>
        <Output NOutputs="12">
          <Output Type="Variable" Label="var_vertexKFChi2" Expression="var_vertexKFChi2"/>
          <Output Type="Variable" Label="var_svpvTauAngle" Expression="var_svpvTauAngle"/>
          <Output Type="Variable" Label="var_flightLenSig" Expression="var_flightLenSig"/>
          <Output Type="Variable" Label="var_sumMuTrkKinkChi2" Expression="var_sumMuTrkKinkChi2"/>
          <Output Type="Variable" Label="var_segCompMuMin" Expression="var_segCompMuMin"/>
          <Output Type="Variable" Label="var_MinMIPLikelihood" Expression="var_MinMIPLikelihood"/>
          <Output Type="Variable" Label="var_maxdca" Expression="var_maxdca"/>
          <Output Type="Variable" Label="var_MuMu_mindR" Expression="var_MuMu_mindR"/>
          <Output Type="Variable" Label="var_RelPt_Mu1Tau" Expression="var_RelPt_Mu1Tau"/>
          <Output Type="Variable" Label="var_Eta_au" Expression="var_Eta_au"/>
          <Output Type="Variable" Label="var_MuMu_minKFChi2" Expression="var_MuMu_minKFChi2"/>
          <Output Type="Variable" Label="var_MuTau_maxdR" Expression="var_MuTau_maxdR"/>
        </Output>
      </Selection>
      <Class ClassIndex="0">
        <Ranges>
          <Range Index="0" Min="6.6890297457575798e-03" Max="9.3677757263183594e+01"/>
          <Range Index="1" Min="2.4736736668273807e-04" Max="1.8383502960205078e-01"/>
          <Range Index="2" Min="8.8366800546646118e-01" Max="1.6567543029785156e+01"/>
          <Range Index="3" Min="7.6135931015014648e+00" Max="1.0101476440429688e+03"/>
          <Range Index="4" Min="0.0000000000000000e+00" Max="1.0000000000000000e+00"/>
          <Range Index="5" Min="1.0302071132173296e-05" Max="9.9493485689163208e-01"/>
          <Range Index="6" Min="1.2969970703125000e-04" Max="1.2701469659805298e+00"/>
          <Range Index="7" Min="1.6383801121264696e-03" Max="2.9395395517349243e-01"/>
          <Range Index="8" Min="7.6709963381290436e-02" Max="8.0567252635955811e-01"/>
          <Range Index="9" Min="-9.9340242147445679e-01" Max="1.0095351934432983e+00"/>
          <Range Index="10" Min="0.0000000000000000e+00" Max="5.6605281829833984e+00"/>
          <Range Index="11" Min="2.5976269971579313e-03" Max="2.2111323475837708e-01"/>
        </Ranges>
      </Class>
      <Class ClassIndex="1">
        <Ranges>
          <Range Index="0" Min="2.6000995188951492e-02" Max="9.9554611206054688e+01"/>
          <Range Index="1" Min="6.6476507345214486e-04" Max="2.3958003520965576e+00"/>
          <Range Index="2" Min="5.5078661441802979e-01" Max="3.2295948028564453e+01"/>
          <Range Index="3" Min="5.5976943969726562e+00" Max="2.3828984375000000e+03"/>
          <Range Index="4" Min="0.0000000000000000e+00" Max="1.0000000000000000e+00"/>
          <Range Index="5" Min="4.3305217332090251e-06" Max="9.9247539043426514e-01"/>
          <Range Index="6" Min="4.9614906311035156e-04" Max="1.9345388412475586e+00"/>
          <Range Index="7" Min="1.8050591461360455e-03" Max="2.2281681001186371e-01"/>
          <Range Index="8" Min="9.5574289560317993e-02" Max="7.9643350839614868e-01"/>
          <Range Index="9" Min="-1.4203042984008789e+00" Max="1.0315089225769043e+00"/>
          <Range Index="10" Min="0.0000000000000000e+00" Max="2.2436405181884766e+01"/>
          <Range Index="11" Min="1.9458763999864459e-03" Max="2.3626539111137390e-01"/>
        </Ranges>
      </Class>
      <Class ClassIndex="2">
        <Ranges>
          <Range Index="0" Min="6.6890297457575798e-03" Max="9.9554611206054688e+01"/>
          <Range Index="1" Min="2.4736736668273807e-04" Max="2.3958003520965576e+00"/>
          <Range Index="2" Min="5.5078661441802979e-01" Max="3.2295948028564453e+01"/>
          <Range Index="3" Min="5.5976943969726562e+00" Max="2.3828984375000000e+03"/>
          <Range Index="4" Min="0.0000000000000000e+00" Max="1.0000000000000000e+00"/>
          <Range Index="5" Min="4.3305217332090251e-06" Max="9.9493485689163208e-01"/>
          <Range Index="6" Min="1.2969970703125000e-04" Max="1.9345388412475586e+00"/>
          <Range Index="7" Min="1.6383801121264696e-03" Max="2.9395395517349243e-01"/>
          <Range Index="8" Min="7.6709963381290436e-02" Max="8.0567252635955811e-01"/>
          <Range Index="9" Min="-1.4203042984008789e+00" Max="1.0315089225769043e+00"/>
          <Range Index="10" Min="0.0000000000000000e+00" Max="2.2436405181884766e+01"/>
          <Range Index="11" Min="1.9458763999864459e-03" Max="2.3626539111137390e-01"/>
        </Ranges>
      </Class>
    </Transform>
  </Transformations>
  <MVAPdfs/>
  <Weights>
    <Layout NLayers="3">
      <Layer Index="0" NNeurons="13">
        <Neuron NSynapses="17">
          1.3411754712965740e+00 5.2666892274121242e+00 1.0772218184881048e+00 1.8192908946209758e+00 -7.4958439110217323e-01 2.2033376738636051e-01 -2.7313101732771661e-01 1.7811773665956117e+00 -1.8980455343272191e+00 -4.0908940433936436e-01 -1.4681796924010959e+00 5.9291573689884425e-01 -1.2455143193045290e+00 -9.8245016866426033e-03 -2.0975425468802906e+00 5.1564148763868234e-01 -6.1450468985211804e-01 
        </Neuron>
        <Neuron NSynapses="17">
          4.6865698405313827e+00 1.1232588821882860e+01 1.7239824433313615e+00 2.7709697813822481e-01 2.9266416392517551e+00 3.3884215616763030e-01 -6.5704875841341064e+00 -8.2596283896388911e-01 -7.0510203725352971e-01 -1.9424091496912137e+00 -1.3608795684735484e+00 -5.7413231459255938e+00 6.5674313197435918e-01 1.3291995416699103e+00 1.3925019648142314e+00 -1.5445936992551895e-01 -4.3163407420762995e-01 
        </Neuron>
        <Neuron NSynapses="17">
          -9.1735989976855656e-02 1.9336391060048152e-02 -1.1163102232834818e+00 2.2067955473814429e+00 -3.2582461741534323e+00 2.2933113637364095e+00 1.4741056015323823e+00 8.8297335748066152e-01 6.9773367601406300e-01 3.5177291594637583e+00 -6.7222841173943459e-01 -2.8410591155363552e+00 1.0835477044467865e+00 7.2367289902946019e-01 1.2587312648288806e+00 2.6043147342001509e+00 1.0744583421674041e+00 
        </Neuron>
        <Neuron NSynapses="17">
          9.5927844889847635e-01 1.5792175674885650e-01 1.5687641905907066e+00 -1.2269218010140059e+00 4.4600108716108727e-02 -1.1256183243415470e+00 -1.5084726330638447e+00 1.9612558938719307e+00 1.6912188623210203e+00 -2.4757055236062007e+00 3.9635288989024109e-01 -7.6767042023678600e-01 9.7955999963055584e-01 2.1539143710530464e+00 -7.1453892106986394e-01 1.5275785449239995e-01 -1.3512054840340180e+00 
        </Neuron>
        <Neuron NSynapses="17">
          5.1633580292046100e-01 9.5724170573875333e-02 -6.1760648575850907e-01 -1.0987568250393382e+00 -7.3888025788483658e-01 1.2531634391608832e+00 1.1361446666427295e+00 -4.1083058018936702e-01 -1.5248589472670946e+00 -1.0367566941031472e+00 1.7299341252500264e-01 7.2728767083677634e-02 3.5811915937592032e+00 3.3496428935427025e-01 -4.3760768249227228e-01 -1.7894013732356846e+00 -8.8478817269652055e-01 
        </Neuron>
        <Neuron NSynapses="17">
          2.7202005088753956e-01 -2.0318608729152465e-01 -8.1615874389310672e-01 -1.0513254004352390e+00 -1.1199601742499150e+00 -1.5493846487815824e-01 3.2137644835475786e-02 9.1501446515264706e-01 -2.3715225712300363e+00 -1.5136515281863616e-01 2.2173057990708482e+00 1.2813399770681669e-01 -1.7819842500456248e-01 -1.0242984957285133e+00 -1.0272806221261634e+00 -2.3360394525179276e+00 -4.7385163151433880e-02 
        </Neuron>
        <Neuron NSynapses="17">
          9.2721382790764306e-01 -2.4677726516803250e-01 -8.0924503176011520e-01 2.1274763841149866e+00 2.6370370710154639e-01 -1.2499312767624218e+00 1.0920213719962982e-01 7.1629198411106998e-01 -1.1057500830077696e+00 9.1058967913964103e-02 -4.3433759159398948e-02 1.3764385492235902e+00 -4.8085910830182460e-01 2.1307247310103765e+00 9.4142784373581945e-01 -7.6131668802484198e-01 7.1354246995615067e-01 
        </Neuron>
        <Neuron NSynapses="17">
          -4.4028452082588670e-01 -1.9700689253608135e+00 3.3301127328969177e-01 3.5708346522431142e-02 1.4060199703788956e+00 1.1431675847935732e+00 -3.3538796629149770e-01 -3.6469415837870395e-01 -1.1545185995300458e+00 -3.4384498140084330e+00 2.0109878399162988e+00 3.1292900528163831e-02 -9.9107635324114218e-01 1.0014542451497686e+00 -3.1355131128035731e+00 3.9533537147354259e-01 3.7947652318129430e+00 
        </Neuron>
        <Neuron NSynapses="17">
          1.5653543945912447e+00 4.1164320477506994e-01 2.5205888078483679e-01 1.3727487376798311e+00 5.1275146145892858e-01 6.2322346772363746e-01 2.0700335836953318e-01 -2.9080929919438270e-02 -1.4461706357879272e+00 1.3582631991194669e+00 1.6976941907074914e+00 1.0324198065304637e+00 1.7394341206868055e-01 2.1316771107133817e-01 -3.3136799425044339e-01 6.5556302620226592e-01 2.0064350341167936e+00 
        </Neuron>
        <Neuron NSynapses="17">
          4.3204633015759025e-01 1.3367313812280793e-01 2.1449239119993915e-01 7.7283910332872630e-01 5.2865285582591803e-01 6.1387995772849639e-02 2.1721950946001459e-01 1.6451993106817082e+00 2.6681373588693064e-01 2.2976234875085955e-01 1.1265745386757797e+00 4.9740409684637540e-02 -8.7520667047125481e-02 -5.8395674167665301e-01 7.7700694828620753e-01 1.0040633999646478e+00 -7.4373447956451166e-01 
        </Neuron>
        <Neuron NSynapses="17">
          -7.0455439674522405e-02 -2.9252662770607714e+00 9.0334979922076966e-02 2.0414487848494165e+00 1.8880225047814188e+00 -3.0154766768503998e+00 6.6571044834557680e-01 4.0765811437696869e-01 8.9595316136169645e-01 -9.8842135729229985e-01 -1.3484957056401532e+00 2.6180110133384340e+00 2.5522235652418943e+00 -1.0604564834048988e+00 4.7515379147415032e-01 -6.5911248542945067e-01 9.0917747219209047e-02 
        </Neuron>
        <Neuron NSynapses="17">
          8.3964969464243377e-01 6.6336566449928325e-01 -3.6288002076099501e-01 -7.9650524317525406e-01 3.3026729289690782e-01 7.6119547115040198e-01 4.3630163529613623e-02 1.2675615326187393e+00 -7.7154968617423814e-01 3.4065055162126323e-01 3.5251169034462532e-01 8.1915937655318835e-02 -1.0575128128651539e+00 -4.9342894085912481e-01 -1.0622672852628660e-01 -1.8202479492441995e-01 -1.9786165604619338e-01 
        </Neuron>
        <Neuron NSynapses="17">
          5.6306166750183415e+00 1.1997148424031646e+01 -9.5806697416061493e-01 -7.4902351318765081e-01 2.6847805257644213e+00 -8.4051758773440999e-01 -6.9339377781733802e+00 -3.3372593732555228e-01 -3.2967727297100136e+00 -3.2064979350998080e+00 1.6738903546775137e+00 -3.2670775328760246e+00 7.2191213860221981e-01 -5.3545221819015854e-01 2.6850107360800233e+00 -1.3757762380724694e+00 -3.3880991165977414e-01 
        </Neuron>
      </Layer>
      <Layer Index="1" NNeurons="18">
        <Neuron NSynapses="1">
          -3.3114703529939113e+00 
        </Neuron>
        <Neuron NSynapses="1">
          -2.4018028640365667e+00 
        </Neuron>
        <Neuron NSynapses="1">
          5.0597508815869330e-01 
        </Neuron>
        <Neuron NSynapses="1">
          1.6506810839378618e+00 
        </Neuron>
        <Neuron NSynapses="1">
          -7.9605360107952505e-01 
        </Neuron>
        <Neuron NSynapses="1">
          1.7262979419715823e+00 
        </Neuron>
        <Neuron NSynapses="1">
          2.9288775929287127e+00 
        </Neuron>
        <Neuron NSynapses="1">
          -1.0135505686789370e+00 
        </Neuron>
        <Neuron NSynapses="1">
          1.1963645429659124e+00 
        </Neuron>
        <Neuron NSynapses="1">
          9.7679478913609852e-01 
        </Neuron>
        <Neuron NSynapses="1">
          1.3679244210083179e+00 
        </Neuron>
        <Neuron NSynapses="1">
          1.3888749945056003e+00 
        </Neuron>
        <Neuron NSynapses="1">
          -8.3886091440688282e-01 
        </Neuron>
        <Neuron NSynapses="1">
          1.7618618996996747e+00 
        </Neuron>
        <Neuron NSynapses="1">
          -2.7165840425978893e+00 
        </Neuron>
        <Neuron NSynapses="1">
          -8.5946230663474421e-01 
        </Neuron>
        <Neuron NSynapses="1">
          -1.3378080543592901e+00 
        </Neuron>
        <Neuron NSynapses="1">
          -2.0610696949335634e+00 
        </Neuron>
      </Layer>
      <Layer Index="2" NNeurons="1">
        <Neuron NSynapses="0"/>
      </Layer>
    </Layout>
  </Weights>
</MethodSetup>
