<?xml version="1.0"?>
<MethodSetup Method="MLP::MLP">
  <GeneralInfo>
    <Info name="TMVA Release" value="4.2.1 [262657]"/>
    <Info name="ROOT Release" value="6.10/05 [395781]"/>
    <Info name="Creator" value="bjoshi"/>
    <Info name="Date" value="Fri Sep 27 15:18:32 2019"/>
    <Info name="Host" value="Linux cmsbuild09.cern.ch 2.6.32-696.1.1.el6.x86_64 #1 SMP Wed Apr 12 08:44:28 CEST 2017 x86_64 x86_64 x86_64 GNU/Linux"/>
    <Info name="Dir" value="/afs/cern.ch/work/b/bjoshi/Analysis/workdirTMVAAnalysisSep_24_2019/Code/CommonUtils/tmva"/>
    <Info name="Training events" value="8961"/>
    <Info name="TrainingTime" value="6.71029692e+01"/>
    <Info name="AnalysisType" value="Classification"/>
  </GeneralInfo>
  <Options>
    <Option name="NCycles" modified="Yes">600</Option>
    <Option name="HiddenLayers" modified="Yes">N+5</Option>
    <Option name="NeuronType" modified="Yes">tanh</Option>
    <Option name="RandomSeed" modified="No">1</Option>
    <Option name="EstimatorType" modified="No">CE</Option>
    <Option name="NeuronInputType" modified="No">sum</Option>
    <Option name="V" modified="Yes">False</Option>
    <Option name="VerbosityLevel" modified="No">Default</Option>
    <Option name="VarTransform" modified="Yes">N</Option>
    <Option name="H" modified="Yes">True</Option>
    <Option name="CreateMVAPdfs" modified="No">False</Option>
    <Option name="IgnoreNegWeightsInTraining" modified="No">False</Option>
    <Option name="TrainingMethod" modified="No">BP</Option>
    <Option name="LearningRate" modified="No">2.000000e-02</Option>
    <Option name="DecayRate" modified="No">1.000000e-02</Option>
    <Option name="TestRate" modified="Yes">5</Option>
    <Option name="EpochMonitoring" modified="No">False</Option>
    <Option name="Sampling" modified="No">1.000000e+00</Option>
    <Option name="SamplingEpoch" modified="No">1.000000e+00</Option>
    <Option name="SamplingImportance" modified="No">1.000000e+00</Option>
    <Option name="SamplingTraining" modified="No">True</Option>
    <Option name="SamplingTesting" modified="No">False</Option>
    <Option name="ResetStep" modified="No">50</Option>
    <Option name="Tau" modified="No">3.000000e+00</Option>
    <Option name="BPMode" modified="No">sequential</Option>
    <Option name="BatchSize" modified="No">-1</Option>
    <Option name="ConvergenceImprove" modified="No">1.000000e-30</Option>
    <Option name="ConvergenceTests" modified="No">-1</Option>
    <Option name="UseRegulator" modified="Yes">False</Option>
    <Option name="UpdateLimit" modified="No">10000</Option>
    <Option name="CalculateErrors" modified="No">False</Option>
    <Option name="WeightRange" modified="No">1.000000e+00</Option>
  </Options>
  <Variables NVar="13">
    <Variable VarIndex="0" Expression="var_vertexKFChi2" Label="var_vertexKFChi2" Title="Variable vertexKFChi2" Unit="units" Internal="var_vertexKFChi2" Type="F" Min="4.93335212e-03" Max="9.92735138e+01"/>
    <Variable VarIndex="1" Expression="var_svpvTauAngle" Label="var_svpvTauAngle" Title="Variable svpvTauAngle" Unit="units" Internal="var_svpvTauAngle" Type="F" Min="1.18228665e-04" Max="1.26206672e+00"/>
    <Variable VarIndex="2" Expression="var_flightLenSig" Label="var_flightLenSig" Title="Variable flightLenSig" Unit="units" Internal="var_flightLenSig" Type="F" Min="5.07751882e-01" Max="2.09334946e+01"/>
    <Variable VarIndex="3" Expression="var_sumMuTrkKinkChi2" Label="var_sumMuTrkKinkChi2" Title="Variable sumMuTrkKinkChi2" Unit="units" Internal="var_sumMuTrkKinkChi2" Type="F" Min="5.65686798e+00" Max="2.76234009e+03"/>
    <Variable VarIndex="4" Expression="var_segCompMuMin" Label="var_segCompMuMin" Title="Variable segCompMuMin" Unit="units" Internal="var_segCompMuMin" Type="F" Min="0.00000000e+00" Max="1.00000000e+00"/>
    <Variable VarIndex="5" Expression="var_MinMIPLikelihood" Label="var_MinMIPLikelihood" Title="Variable MinMIPLikelihood" Unit="units" Internal="var_MinMIPLikelihood" Type="F" Min="1.17318154e-06" Max="9.95340228e-01"/>
    <Variable VarIndex="6" Expression="var_maxdca" Label="var_maxdca" Title="Variable maxdca" Unit="units" Internal="var_maxdca" Type="F" Min="1.25885010e-04" Max="5.06948853e+00"/>
    <Variable VarIndex="7" Expression="var_MuMu_mindR" Label="var_MuMu_mindR" Title="Variable MuMu_mindR" Unit="units" Internal="var_MuMu_mindR" Type="F" Min="1.79446791e-03" Max="3.62885803e-01"/>
    <Variable VarIndex="8" Expression="var_RelPt_Mu1Tau" Label="var_RelPt_Mu1Tau" Title="Variable RelPt_Mu1Tau" Unit="units" Internal="var_RelPt_Mu1Tau" Type="F" Min="5.73893264e-02" Max="8.34212124e-01"/>
    <Variable VarIndex="9" Expression="var_MuMu_minKFChi2" Label="var_MuMu_minKFChi2" Title="Variable MuMu_minKFChi2" Unit="units" Internal="var_MuMu_minKFChi2" Type="F" Min="0.00000000e+00" Max="2.67643604e+01"/>
    <Variable VarIndex="10" Expression="var_MuTau_maxdR" Label="var_MuTau_maxdR" Title="Variable MuTau_maxdR" Unit="units" Internal="var_MuTau_maxdR" Type="F" Min="2.27414561e-03" Max="4.50455219e-01"/>
    <Variable VarIndex="11" Expression="var_MaxD0Significance" Label="var_MaxD0Significance" Title="Variable MaxD0Significance" Unit="units" Internal="var_MaxD0Significance" Type="F" Min="4.18160809e-03" Max="1.67352028e+01"/>
    <Variable VarIndex="12" Expression="var_IsolationMinDist" Label="var_IsolationMinDist" Title="Variable IsolationMinDist" Unit="units" Internal="var_IsolationMinDist" Type="F" Min="2.12300089e-04" Max="9.90000000e+01"/>
  </Variables>
  <Spectators NSpec="1">
    <Spectator SpecIndex="0" Expression="var_tauMass" Label="var_tauMass" Title="Variable tauMass" Unit="units" Internal="var_tauMass" Type="F" Min="5.89990795e-01" Max="3.07679439e+00"/>
  </Spectators>
  <Classes NClass="2">
    <Class Name="Signal" Index="0"/>
    <Class Name="Background" Index="1"/>
  </Classes>
  <Transformations NTransformations="1">
    <Transform Name="Normalize">
      <Selection>
        <Input NInputs="13">
          <Input Type="Variable" Label="var_vertexKFChi2" Expression="var_vertexKFChi2"/>
          <Input Type="Variable" Label="var_svpvTauAngle" Expression="var_svpvTauAngle"/>
          <Input Type="Variable" Label="var_flightLenSig" Expression="var_flightLenSig"/>
          <Input Type="Variable" Label="var_sumMuTrkKinkChi2" Expression="var_sumMuTrkKinkChi2"/>
          <Input Type="Variable" Label="var_segCompMuMin" Expression="var_segCompMuMin"/>
          <Input Type="Variable" Label="var_MinMIPLikelihood" Expression="var_MinMIPLikelihood"/>
          <Input Type="Variable" Label="var_maxdca" Expression="var_maxdca"/>
          <Input Type="Variable" Label="var_MuMu_mindR" Expression="var_MuMu_mindR"/>
          <Input Type="Variable" Label="var_RelPt_Mu1Tau" Expression="var_RelPt_Mu1Tau"/>
          <Input Type="Variable" Label="var_MuMu_minKFChi2" Expression="var_MuMu_minKFChi2"/>
          <Input Type="Variable" Label="var_MuTau_maxdR" Expression="var_MuTau_maxdR"/>
          <Input Type="Variable" Label="var_MaxD0Significance" Expression="var_MaxD0Significance"/>
          <Input Type="Variable" Label="var_IsolationMinDist" Expression="var_IsolationMinDist"/>
        </Input>
        <Output NOutputs="13">
          <Output Type="Variable" Label="var_vertexKFChi2" Expression="var_vertexKFChi2"/>
          <Output Type="Variable" Label="var_svpvTauAngle" Expression="var_svpvTauAngle"/>
          <Output Type="Variable" Label="var_flightLenSig" Expression="var_flightLenSig"/>
          <Output Type="Variable" Label="var_sumMuTrkKinkChi2" Expression="var_sumMuTrkKinkChi2"/>
          <Output Type="Variable" Label="var_segCompMuMin" Expression="var_segCompMuMin"/>
          <Output Type="Variable" Label="var_MinMIPLikelihood" Expression="var_MinMIPLikelihood"/>
          <Output Type="Variable" Label="var_maxdca" Expression="var_maxdca"/>
          <Output Type="Variable" Label="var_MuMu_mindR" Expression="var_MuMu_mindR"/>
          <Output Type="Variable" Label="var_RelPt_Mu1Tau" Expression="var_RelPt_Mu1Tau"/>
          <Output Type="Variable" Label="var_MuMu_minKFChi2" Expression="var_MuMu_minKFChi2"/>
          <Output Type="Variable" Label="var_MuTau_maxdR" Expression="var_MuTau_maxdR"/>
          <Output Type="Variable" Label="var_MaxD0Significance" Expression="var_MaxD0Significance"/>
          <Output Type="Variable" Label="var_IsolationMinDist" Expression="var_IsolationMinDist"/>
        </Output>
      </Selection>
      <Class ClassIndex="0">
        <Ranges>
          <Range Index="0" Min="4.9333521164953709e-03" Max="9.7805923461914062e+01"/>
          <Range Index="1" Min="1.1822866508737206e-04" Max="3.8474500179290771e-01"/>
          <Range Index="2" Min="7.4648725986480713e-01" Max="1.6034837722778320e+01"/>
          <Range Index="3" Min="5.6568679809570312e+00" Max="1.0151350708007812e+03"/>
          <Range Index="4" Min="0.0000000000000000e+00" Max="1.0000000000000000e+00"/>
          <Range Index="5" Min="5.4336187531589530e-06" Max="9.9534022808074951e-01"/>
          <Range Index="6" Min="1.2588500976562500e-04" Max="5.0694885253906250e+00"/>
          <Range Index="7" Min="1.7944679129868746e-03" Max="3.4232777357101440e-01"/>
          <Range Index="8" Min="5.7389326393604279e-02" Max="8.0537080764770508e-01"/>
          <Range Index="9" Min="0.0000000000000000e+00" Max="2.1661760330200195e+01"/>
          <Range Index="10" Min="2.2741456050425768e-03" Max="3.2145166397094727e-01"/>
          <Range Index="11" Min="4.1816080920398235e-03" Max="1.2783543586730957e+01"/>
          <Range Index="12" Min="2.1230008860584348e-04" Max="9.9000000000000000e+01"/>
        </Ranges>
      </Class>
      <Class ClassIndex="1">
        <Ranges>
          <Range Index="0" Min="3.4416783601045609e-02" Max="9.9273513793945312e+01"/>
          <Range Index="1" Min="3.9095603278838098e-04" Max="1.2620667219161987e+00"/>
          <Range Index="2" Min="5.0775188207626343e-01" Max="2.0933494567871094e+01"/>
          <Range Index="3" Min="6.8401384353637695e+00" Max="2.7623400878906250e+03"/>
          <Range Index="4" Min="0.0000000000000000e+00" Max="1.0000000000000000e+00"/>
          <Range Index="5" Min="1.1731815448001726e-06" Max="9.8797428607940674e-01"/>
          <Range Index="6" Min="5.2785873413085938e-04" Max="3.2882936000823975e+00"/>
          <Range Index="7" Min="2.6086666621267796e-03" Max="3.6288580298423767e-01"/>
          <Range Index="8" Min="6.0817804187536240e-02" Max="8.3421212434768677e-01"/>
          <Range Index="9" Min="0.0000000000000000e+00" Max="2.6764360427856445e+01"/>
          <Range Index="10" Min="3.3292188309133053e-03" Max="4.5045521855354309e-01"/>
          <Range Index="11" Min="7.7272658236324787e-03" Max="1.6735202789306641e+01"/>
          <Range Index="12" Min="2.3296220751944929e-04" Max="9.9000000000000000e+01"/>
        </Ranges>
      </Class>
      <Class ClassIndex="2">
        <Ranges>
          <Range Index="0" Min="4.9333521164953709e-03" Max="9.9273513793945312e+01"/>
          <Range Index="1" Min="1.1822866508737206e-04" Max="1.2620667219161987e+00"/>
          <Range Index="2" Min="5.0775188207626343e-01" Max="2.0933494567871094e+01"/>
          <Range Index="3" Min="5.6568679809570312e+00" Max="2.7623400878906250e+03"/>
          <Range Index="4" Min="0.0000000000000000e+00" Max="1.0000000000000000e+00"/>
          <Range Index="5" Min="1.1731815448001726e-06" Max="9.9534022808074951e-01"/>
          <Range Index="6" Min="1.2588500976562500e-04" Max="5.0694885253906250e+00"/>
          <Range Index="7" Min="1.7944679129868746e-03" Max="3.6288580298423767e-01"/>
          <Range Index="8" Min="5.7389326393604279e-02" Max="8.3421212434768677e-01"/>
          <Range Index="9" Min="0.0000000000000000e+00" Max="2.6764360427856445e+01"/>
          <Range Index="10" Min="2.2741456050425768e-03" Max="4.5045521855354309e-01"/>
          <Range Index="11" Min="4.1816080920398235e-03" Max="1.6735202789306641e+01"/>
          <Range Index="12" Min="2.1230008860584348e-04" Max="9.9000000000000000e+01"/>
        </Ranges>
      </Class>
    </Transform>
  </Transformations>
  <MVAPdfs/>
  <Weights>
    <Layout NLayers="3">
      <Layer Index="0" NNeurons="14">
        <Neuron NSynapses="18">
          -7.3129959213236750e-01 5.2919573292072852e-01 9.3974914297067580e-01 2.1375282665933666e+00 -1.4837123914444243e+00 1.7122755597376463e-01 8.1628917212110708e-01 1.2416300243491767e+00 5.1987584188648439e-01 9.4051409675242850e-02 -3.7446528360006575e+00 -2.2183439604774322e-01 -1.5470892188207319e+00 1.2759893561678429e-01 -2.5429434914768258e-02 -5.6271767991088982e-02 -1.0073839609292088e+00 1.6085560459676709e+00 
        </Neuron>
        <Neuron NSynapses="18">
          3.2526086040459307e-01 -3.2223836228698499e-01 -6.5443427326953274e-01 -2.2571639852147404e-01 8.5058876809195150e-01 -3.1829795377771253e-02 -1.9546433201072386e+00 6.7673769352794191e-02 7.1409599680928160e-01 -6.7887395564088164e+00 -1.0068788555401936e+01 2.9893177756462461e+00 -2.6390408769996931e-01 2.1863230481990490e+00 -8.5883202891398425e-01 -7.7216559670756970e+00 3.9095174101862828e-01 -2.3665328872587710e-02 
        </Neuron>
        <Neuron NSynapses="18">
          -1.6630037733563763e+00 4.2085465068189576e+00 -7.5848566893653957e-01 1.6866112214425966e+00 1.3518517163948134e+00 1.7262524310266725e+00 6.4006303828067851e-02 1.0110346838888251e+00 -1.0722660831402040e+00 -3.3330428617506387e+00 1.4384173009241878e+00 2.1005395952087382e+00 2.5605576857391390e+00 7.4948722283326885e-01 2.4073865996332111e-01 2.9087138581447483e+00 -1.7540069188169483e+00 3.4424490201621398e+00 
        </Neuron>
        <Neuron NSynapses="18">
          -2.0835248063373748e+00 -1.6248336494969307e+00 -1.7397245066142035e+00 -1.0975447083033099e+00 2.0300667873669496e+00 1.1558579774204663e+00 -1.7538861031808270e+00 4.0349434480394986e-01 -6.6019317921287590e-01 -4.8734202734190940e-01 -1.9991924992718491e+00 1.6377790238838692e+00 4.1644302147100515e-01 -1.0854714606370883e+00 9.8619752013984840e-01 -5.2133249639747525e+00 -3.2851010299467387e-01 -1.9070086484836914e-02 
        </Neuron>
        <Neuron NSynapses="18">
          1.3102787183078763e+00 7.1084579144979321e-01 1.1531148551863850e+00 2.9031948985552530e-01 -2.2712621612307391e+00 -1.6518974723446991e+00 -1.7078753339000108e-01 6.7245425100736245e-01 1.8376417476659377e+00 -8.4062448311962745e-02 1.5937796255861075e-01 -6.6985890692115968e-01 6.3039660646901441e-01 6.2983111655557056e-01 9.4516317266325700e-01 1.3586302286005128e-01 1.7537042278250811e-01 -8.4705273582122331e-01 
        </Neuron>
        <Neuron NSynapses="18">
          -2.6333509700991664e-01 3.4461677699546089e-01 3.1675185538285650e-01 -2.8391879841620824e+00 5.7158202279123860e-01 1.3745799589543894e+00 3.4303832605919043e-01 -1.7906044103076173e+00 -9.1129428144025715e-01 -2.2059838827650990e-01 1.6219928131271374e-02 -5.8995533346760742e-01 2.7032257834555939e-01 -7.5611106476062881e-02 -4.1864299952708678e-01 1.2390927924812910e-01 -4.5150780448116525e-02 -3.6832774710585420e-01 
        </Neuron>
        <Neuron NSynapses="18">
          2.7972936887715560e-01 -4.9225383582697277e-02 -2.3387224458132123e+00 -5.9411304206693341e-02 4.2224431493470294e-01 3.7979897224617254e-01 -1.5773604515358708e+00 1.9410668543921235e+00 -4.8717188433028608e-01 -3.6555189850303205e-01 1.7650857239210580e+00 -1.0945987543756259e+00 -1.5054758826182766e+00 2.7577772751975016e-01 -4.3453975571589609e-01 -2.0925523790366285e-01 7.1713460166981813e-01 1.1859698183744429e+00 
        </Neuron>
        <Neuron NSynapses="18">
          -4.6874789221306440e-01 -7.2241844291072554e-01 -1.5613986825656123e+00 1.3118644709823679e+00 3.9140395876154355e-01 -2.0795989675020712e+00 1.0580348294867690e+00 -1.1094433409223621e+00 -7.7045236258821659e-01 2.5692575494828618e-02 1.1510116992419920e-02 -5.3951837333652302e+00 -2.4104317689173418e-01 3.7190545735695411e+00 2.7580942660682677e+00 -2.2329976296979170e-01 -7.9079260372986271e-01 6.2425584325981098e-01 
        </Neuron>
        <Neuron NSynapses="18">
          -1.7152334789487134e+00 9.4460318978847635e-01 2.3056420936862114e+00 3.3636792056495612e-01 -1.3267099365979937e+00 -4.8270777699631667e-01 -3.4557283414937947e+00 5.3430087705647333e-01 2.8832155968883821e+00 -5.6652621793235491e-01 4.1754795654601962e-01 -9.4336703061426164e-02 9.5792817965102950e-01 1.9245163283466229e+00 2.0913897004566762e-01 2.6466377970788302e-01 1.8364224093115740e+00 7.9891622232917503e-01 
        </Neuron>
        <Neuron NSynapses="18">
          7.4834088151586031e-01 1.1973005905458118e+00 5.5542053856189799e-01 -1.0290597586805426e+00 -5.5062039264744800e-01 1.6169190921327916e+00 -2.4643747173859594e+00 -2.3599145752412334e-01 8.7687108441728279e-01 -5.4829361355768202e-01 2.8103847856949078e+00 1.4982095529381187e+00 1.6793581911385165e+00 -2.9212938853184025e+00 -4.5832429664871464e-02 -2.5253268980435156e-01 2.8522492704491109e-01 -2.1708196338088070e+00 
        </Neuron>
        <Neuron NSynapses="18">
          -1.2254974264475360e+00 1.2184540764749134e-01 1.1554216089886085e+00 -1.4692273076536628e+00 8.7784550292808960e-02 -1.0034803607652892e-01 -1.0889521634813613e+00 2.2216825011881967e+00 -6.9865398324902850e-01 -2.0312741963043673e-01 -8.1771136426066968e-02 1.2607769222127634e+00 9.1933016087291930e-01 7.4151150355355511e-01 1.2330215452551565e+00 5.3352073392361499e-01 -3.3978524998016435e+00 9.3695186976587264e-01 
        </Neuron>
        <Neuron NSynapses="18">
          1.7696730886494455e-01 -1.8616686315942976e+00 -6.1573396801948288e-01 -8.8472361106806674e-03 -5.0345697726393981e-02 -1.5210859189762853e+00 4.9644431999342370e-01 8.1716996452324620e-01 1.1981640336156787e-01 1.3182571699903411e+00 -5.4117173310191047e-01 5.4194583131575658e-01 1.5509451147584657e-02 1.4825050380346632e+00 -1.3687736341754748e+00 -1.2092125615293206e+00 1.9238947471702292e+00 9.3370755450339127e-01 
        </Neuron>
        <Neuron NSynapses="18">
          1.1103268928371623e+00 2.0885706212864794e-01 1.7852348122384740e+00 -1.7142061741132555e+00 -4.6419258626429004e-02 -1.3857702338294675e+00 -2.8551091365213960e-01 1.6314072172092438e+00 1.6867384988566507e+00 -4.2385590980058767e+00 1.5108733136733080e-01 -3.5270773050800508e-02 -1.8206209001780531e+00 7.8989532792697570e-01 1.7676868461935211e+00 -2.6209668633799649e-01 -8.2051917211978895e-02 -3.3847461737022964e+00 
        </Neuron>
        <Neuron NSynapses="18">
          1.4337630491024043e+00 -2.3534103306161938e+00 1.0770768467725205e+00 1.5766795288066835e+00 -1.6082288843524364e+00 2.0086008596392949e-01 -5.5545909386400876e+00 -4.9403283205424287e-01 -2.3659394239075140e+00 -3.8593364442842568e+00 -1.0751673293944918e+01 3.8640760394208047e+00 -8.9874841957851836e-01 1.3616897418264207e+00 2.6853540293191989e+00 -1.2019723376740945e+01 1.3797981540523767e+00 9.4801009789337798e-01 
        </Neuron>
      </Layer>
      <Layer Index="1" NNeurons="19">
        <Neuron NSynapses="1">
          -1.9922420401080652e+00 
        </Neuron>
        <Neuron NSynapses="1">
          2.6055832036501716e+00 
        </Neuron>
        <Neuron NSynapses="1">
          1.3724676945530885e+00 
        </Neuron>
        <Neuron NSynapses="1">
          -4.8964258576320469e-01 
        </Neuron>
        <Neuron NSynapses="1">
          -1.7393952959867913e+00 
        </Neuron>
        <Neuron NSynapses="1">
          -9.3801248923148461e-01 
        </Neuron>
        <Neuron NSynapses="1">
          1.1958694009908406e+00 
        </Neuron>
        <Neuron NSynapses="1">
          -8.2835250746947497e-01 
        </Neuron>
        <Neuron NSynapses="1">
          8.7373366495475302e-01 
        </Neuron>
        <Neuron NSynapses="1">
          3.0173032174831813e+00 
        </Neuron>
        <Neuron NSynapses="1">
          2.0341850980177538e+00 
        </Neuron>
        <Neuron NSynapses="1">
          -9.4849267221417999e-01 
        </Neuron>
        <Neuron NSynapses="1">
          -4.9946411036022487e-01 
        </Neuron>
        <Neuron NSynapses="1">
          -7.2435123504390297e-01 
        </Neuron>
        <Neuron NSynapses="1">
          -7.9050132572788734e-01 
        </Neuron>
        <Neuron NSynapses="1">
          2.8320720693228814e+00 
        </Neuron>
        <Neuron NSynapses="1">
          -7.4239130531012820e-01 
        </Neuron>
        <Neuron NSynapses="1">
          -1.1458738352503171e+00 
        </Neuron>
        <Neuron NSynapses="1">
          -1.1518903365017070e+00 
        </Neuron>
      </Layer>
      <Layer Index="2" NNeurons="1">
        <Neuron NSynapses="0"/>
      </Layer>
    </Layout>
  </Weights>
</MethodSetup>
