<?xml version="1.0"?>
<MethodSetup Method="MLP::MLP">
  <GeneralInfo>
    <Info name="TMVA Release" value="4.2.1 [262657]"/>
    <Info name="ROOT Release" value="6.10/05 [395781]"/>
    <Info name="Creator" value="bjoshi"/>
    <Info name="Date" value="Wed Sep 25 21:18:49 2019"/>
    <Info name="Host" value="Linux cmsbuild09.cern.ch 2.6.32-696.1.1.el6.x86_64 #1 SMP Wed Apr 12 08:44:28 CEST 2017 x86_64 x86_64 x86_64 GNU/Linux"/>
    <Info name="Dir" value="/afs/cern.ch/work/b/bjoshi/Analysis/workdirTMVAAnalysisSep_24_2019/Code/CommonUtils/tmva"/>
    <Info name="Training events" value="7830"/>
    <Info name="TrainingTime" value="4.30797551e+01"/>
    <Info name="AnalysisType" value="Classification"/>
  </GeneralInfo>
  <Options>
    <Option name="NCycles" modified="Yes">600</Option>
    <Option name="HiddenLayers" modified="Yes">N+5</Option>
    <Option name="NeuronType" modified="Yes">tanh</Option>
    <Option name="RandomSeed" modified="No">1</Option>
    <Option name="EstimatorType" modified="No">CE</Option>
    <Option name="NeuronInputType" modified="No">sum</Option>
    <Option name="V" modified="Yes">False</Option>
    <Option name="VerbosityLevel" modified="No">Default</Option>
    <Option name="VarTransform" modified="Yes">N</Option>
    <Option name="H" modified="Yes">True</Option>
    <Option name="CreateMVAPdfs" modified="No">False</Option>
    <Option name="IgnoreNegWeightsInTraining" modified="No">False</Option>
    <Option name="TrainingMethod" modified="No">BP</Option>
    <Option name="LearningRate" modified="No">2.000000e-02</Option>
    <Option name="DecayRate" modified="No">1.000000e-02</Option>
    <Option name="TestRate" modified="Yes">5</Option>
    <Option name="EpochMonitoring" modified="No">False</Option>
    <Option name="Sampling" modified="No">1.000000e+00</Option>
    <Option name="SamplingEpoch" modified="No">1.000000e+00</Option>
    <Option name="SamplingImportance" modified="No">1.000000e+00</Option>
    <Option name="SamplingTraining" modified="No">True</Option>
    <Option name="SamplingTesting" modified="No">False</Option>
    <Option name="ResetStep" modified="No">50</Option>
    <Option name="Tau" modified="No">3.000000e+00</Option>
    <Option name="BPMode" modified="No">sequential</Option>
    <Option name="BatchSize" modified="No">-1</Option>
    <Option name="ConvergenceImprove" modified="No">1.000000e-30</Option>
    <Option name="ConvergenceTests" modified="No">-1</Option>
    <Option name="UseRegulator" modified="Yes">False</Option>
    <Option name="UpdateLimit" modified="No">10000</Option>
    <Option name="CalculateErrors" modified="No">False</Option>
    <Option name="WeightRange" modified="No">1.000000e+00</Option>
  </Options>
  <Variables NVar="12">
    <Variable VarIndex="0" Expression="var_vertexKFChi2" Label="var_vertexKFChi2" Title="Variable vertexKFChi2" Unit="units" Internal="var_vertexKFChi2" Type="F" Min="2.59430526e-04" Max="9.96464615e+01"/>
    <Variable VarIndex="1" Expression="var_svpvTauAngle" Label="var_svpvTauAngle" Title="Variable svpvTauAngle" Unit="units" Internal="var_svpvTauAngle" Type="F" Min="1.14835166e-04" Max="2.67154694e+00"/>
    <Variable VarIndex="2" Expression="var_flightLenSig" Label="var_flightLenSig" Title="Variable flightLenSig" Unit="units" Internal="var_flightLenSig" Type="F" Min="5.46161711e-01" Max="1.65041428e+01"/>
    <Variable VarIndex="3" Expression="var_sumMuTrkKinkChi2" Label="var_sumMuTrkKinkChi2" Title="Variable sumMuTrkKinkChi2" Unit="units" Internal="var_sumMuTrkKinkChi2" Type="F" Min="7.49810791e+00" Max="3.53881250e+03"/>
    <Variable VarIndex="4" Expression="var_segCompMuMin" Label="var_segCompMuMin" Title="Variable segCompMuMin" Unit="units" Internal="var_segCompMuMin" Type="F" Min="0.00000000e+00" Max="1.00000000e+00"/>
    <Variable VarIndex="5" Expression="var_MinMIPLikelihood" Label="var_MinMIPLikelihood" Title="Variable MinMIPLikelihood" Unit="units" Internal="var_MinMIPLikelihood" Type="F" Min="1.48508479e-06" Max="9.93214130e-01"/>
    <Variable VarIndex="6" Expression="var_maxdca" Label="var_maxdca" Title="Variable maxdca" Unit="units" Internal="var_maxdca" Type="F" Min="3.17096710e-04" Max="9.31046867e+00"/>
    <Variable VarIndex="7" Expression="var_MuMu_mindR" Label="var_MuMu_mindR" Title="Variable MuMu_mindR" Unit="units" Internal="var_MuMu_mindR" Type="F" Min="1.28874532e-03" Max="3.13337415e-01"/>
    <Variable VarIndex="8" Expression="var_RelPt_Mu1Tau" Label="var_RelPt_Mu1Tau" Title="Variable RelPt_Mu1Tau" Unit="units" Internal="var_RelPt_Mu1Tau" Type="F" Min="4.18756306e-02" Max="8.72945428e-01"/>
    <Variable VarIndex="9" Expression="var_Eta_au" Label="var_Eta_au" Title="Variable Eta_au" Unit="units" Internal="var_Eta_au" Type="F" Min="-2.39092207e+00" Max="2.39264131e+00"/>
    <Variable VarIndex="10" Expression="var_MuMu_minKFChi2" Label="var_MuMu_minKFChi2" Title="Variable MuMu_minKFChi2" Unit="units" Internal="var_MuMu_minKFChi2" Type="F" Min="0.00000000e+00" Max="2.96645393e+01"/>
    <Variable VarIndex="11" Expression="var_MuTau_maxdR" Label="var_MuTau_maxdR" Title="Variable MuTau_maxdR" Unit="units" Internal="var_MuTau_maxdR" Type="F" Min="3.66253871e-03" Max="4.19102371e-01"/>
  </Variables>
  <Spectators NSpec="1">
    <Spectator SpecIndex="0" Expression="var_tauMass" Label="var_tauMass" Title="Variable tauMass" Unit="units" Internal="var_tauMass" Type="F" Min="6.00327790e-01" Max="3.68828702e+00"/>
  </Spectators>
  <Classes NClass="2">
    <Class Name="Signal" Index="0"/>
    <Class Name="Background" Index="1"/>
  </Classes>
  <Transformations NTransformations="1">
    <Transform Name="Normalize">
      <Selection>
        <Input NInputs="12">
          <Input Type="Variable" Label="var_vertexKFChi2" Expression="var_vertexKFChi2"/>
          <Input Type="Variable" Label="var_svpvTauAngle" Expression="var_svpvTauAngle"/>
          <Input Type="Variable" Label="var_flightLenSig" Expression="var_flightLenSig"/>
          <Input Type="Variable" Label="var_sumMuTrkKinkChi2" Expression="var_sumMuTrkKinkChi2"/>
          <Input Type="Variable" Label="var_segCompMuMin" Expression="var_segCompMuMin"/>
          <Input Type="Variable" Label="var_MinMIPLikelihood" Expression="var_MinMIPLikelihood"/>
          <Input Type="Variable" Label="var_maxdca" Expression="var_maxdca"/>
          <Input Type="Variable" Label="var_MuMu_mindR" Expression="var_MuMu_mindR"/>
          <Input Type="Variable" Label="var_RelPt_Mu1Tau" Expression="var_RelPt_Mu1Tau"/>
          <Input Type="Variable" Label="var_Eta_au" Expression="var_Eta_au"/>
          <Input Type="Variable" Label="var_MuMu_minKFChi2" Expression="var_MuMu_minKFChi2"/>
          <Input Type="Variable" Label="var_MuTau_maxdR" Expression="var_MuTau_maxdR"/>
        </Input>
        <Output NOutputs="12">
          <Output Type="Variable" Label="var_vertexKFChi2" Expression="var_vertexKFChi2"/>
          <Output Type="Variable" Label="var_svpvTauAngle" Expression="var_svpvTauAngle"/>
          <Output Type="Variable" Label="var_flightLenSig" Expression="var_flightLenSig"/>
          <Output Type="Variable" Label="var_sumMuTrkKinkChi2" Expression="var_sumMuTrkKinkChi2"/>
          <Output Type="Variable" Label="var_segCompMuMin" Expression="var_segCompMuMin"/>
          <Output Type="Variable" Label="var_MinMIPLikelihood" Expression="var_MinMIPLikelihood"/>
          <Output Type="Variable" Label="var_maxdca" Expression="var_maxdca"/>
          <Output Type="Variable" Label="var_MuMu_mindR" Expression="var_MuMu_mindR"/>
          <Output Type="Variable" Label="var_RelPt_Mu1Tau" Expression="var_RelPt_Mu1Tau"/>
          <Output Type="Variable" Label="var_Eta_au" Expression="var_Eta_au"/>
          <Output Type="Variable" Label="var_MuMu_minKFChi2" Expression="var_MuMu_minKFChi2"/>
          <Output Type="Variable" Label="var_MuTau_maxdR" Expression="var_MuTau_maxdR"/>
        </Output>
      </Selection>
      <Class ClassIndex="0">
        <Ranges>
          <Range Index="0" Min="3.8381470367312431e-03" Max="9.9646461486816406e+01"/>
          <Range Index="1" Min="1.1483516573207453e-04" Max="4.8857113718986511e-01"/>
          <Range Index="2" Min="8.9262747764587402e-01" Max="1.6504142761230469e+01"/>
          <Range Index="3" Min="7.6331119537353516e+00" Max="1.0319599609375000e+03"/>
          <Range Index="4" Min="0.0000000000000000e+00" Max="1.0000000000000000e+00"/>
          <Range Index="5" Min="1.4850847946945578e-06" Max="9.9321413040161133e-01"/>
          <Range Index="6" Min="3.8433074951171875e-04" Max="3.6762266159057617e+00"/>
          <Range Index="7" Min="2.3647826164960861e-03" Max="3.1333741545677185e-01"/>
          <Range Index="8" Min="4.1875630617141724e-02" Max="8.4894073009490967e-01"/>
          <Range Index="9" Min="-2.3909220695495605e+00" Max="2.3926413059234619e+00"/>
          <Range Index="10" Min="0.0000000000000000e+00" Max="2.0598953247070312e+01"/>
          <Range Index="11" Min="3.7478967569768429e-03" Max="4.1910237073898315e-01"/>
        </Ranges>
      </Class>
      <Class ClassIndex="1">
        <Ranges>
          <Range Index="0" Min="2.5943052605725825e-04" Max="9.9104537963867188e+01"/>
          <Range Index="1" Min="2.9149721376597881e-04" Max="2.6715469360351562e+00"/>
          <Range Index="2" Min="5.4616171121597290e-01" Max="1.5152626991271973e+01"/>
          <Range Index="3" Min="7.4981079101562500e+00" Max="3.5388125000000000e+03"/>
          <Range Index="4" Min="0.0000000000000000e+00" Max="1.0000000000000000e+00"/>
          <Range Index="5" Min="1.4850847946945578e-06" Max="9.8604995012283325e-01"/>
          <Range Index="6" Min="3.1709671020507812e-04" Max="9.3104686737060547e+00"/>
          <Range Index="7" Min="1.2887453194707632e-03" Max="2.5302898883819580e-01"/>
          <Range Index="8" Min="4.3503582477569580e-02" Max="8.7294542789459229e-01"/>
          <Range Index="9" Min="-2.3839974403381348e+00" Max="2.3762636184692383e+00"/>
          <Range Index="10" Min="0.0000000000000000e+00" Max="2.9664539337158203e+01"/>
          <Range Index="11" Min="3.6625387147068977e-03" Max="3.5552522540092468e-01"/>
        </Ranges>
      </Class>
      <Class ClassIndex="2">
        <Ranges>
          <Range Index="0" Min="2.5943052605725825e-04" Max="9.9646461486816406e+01"/>
          <Range Index="1" Min="1.1483516573207453e-04" Max="2.6715469360351562e+00"/>
          <Range Index="2" Min="5.4616171121597290e-01" Max="1.6504142761230469e+01"/>
          <Range Index="3" Min="7.4981079101562500e+00" Max="3.5388125000000000e+03"/>
          <Range Index="4" Min="0.0000000000000000e+00" Max="1.0000000000000000e+00"/>
          <Range Index="5" Min="1.4850847946945578e-06" Max="9.9321413040161133e-01"/>
          <Range Index="6" Min="3.1709671020507812e-04" Max="9.3104686737060547e+00"/>
          <Range Index="7" Min="1.2887453194707632e-03" Max="3.1333741545677185e-01"/>
          <Range Index="8" Min="4.1875630617141724e-02" Max="8.7294542789459229e-01"/>
          <Range Index="9" Min="-2.3909220695495605e+00" Max="2.3926413059234619e+00"/>
          <Range Index="10" Min="0.0000000000000000e+00" Max="2.9664539337158203e+01"/>
          <Range Index="11" Min="3.6625387147068977e-03" Max="4.1910237073898315e-01"/>
        </Ranges>
      </Class>
    </Transform>
  </Transformations>
  <MVAPdfs/>
  <Weights>
    <Layout NLayers="3">
      <Layer Index="0" NNeurons="13">
        <Neuron NSynapses="17">
          -2.2193917304997973e-01 5.4226982154634715e+00 9.8147920377899978e-01 9.7716383154891795e-01 2.4044973169358944e-01 -1.3309560839180252e+00 -1.3946980212195410e+00 2.1157368889706603e+00 -3.6832085997737041e-01 -7.3692508734426188e-01 -1.6885267001637310e+00 9.9729906340837049e-01 -1.5844625155796777e-01 -2.9691717626769681e-02 -5.0437425695735028e-01 1.9074061424724229e+00 -1.2020124274472093e+00 
        </Neuron>
        <Neuron NSynapses="17">
          4.7973642149398410e+00 5.6149740437667095e+00 1.7117547565244009e+00 9.4653039401450853e-02 1.5923409934703552e+00 7.1596433186838115e-01 -2.3185947267287714e+00 -1.3861192825629667e+00 -2.2194146139422116e-01 5.7494901686852606e-01 -1.3354305226293206e+00 -5.4052502135863136e+00 5.6790878818076529e-01 1.2330303080272154e+00 1.8676523444559086e+00 -1.1095036197820687e+00 3.7782402351888850e-01 
        </Neuron>
        <Neuron NSynapses="17">
          3.3704914713034972e-01 -6.5686985031465062e-01 -1.2058115931847515e+00 2.2142981900754952e+00 -8.4418058247288930e-01 1.0463946488962774e+00 3.2498820680085729e+00 1.5068872742118671e+00 2.0874639567517410e+00 1.9397017420971667e+00 -8.5257724010576552e-01 -1.1011739852184934e+00 4.8949407054906657e-01 2.3087251780163676e-01 -5.4691765358946665e-01 1.2369659707611693e+00 1.5409407025040365e+00 
        </Neuron>
        <Neuron NSynapses="17">
          1.3158376450796045e+00 3.8501703119480052e-01 1.5782331717300628e+00 -1.3939534376069016e+00 6.5924967338338791e-01 -2.1025907963252184e+00 -3.3926239550299022e+00 1.6597854999528627e+00 5.5575537976415312e-01 -2.3155172944846605e+00 1.5062954657316649e-01 -5.8349246073699490e-01 8.0665025525889211e-01 1.4341377294992674e+00 1.9314818459885441e+00 9.1165976697132847e-02 -1.2676462619444135e+00 
        </Neuron>
        <Neuron NSynapses="17">
          1.6587138476141325e-01 -8.4214299524369346e-02 -4.8237829345359118e-01 -1.7504102239512933e+00 7.0177335022426707e-02 7.6591306401124992e-01 7.1661482441443314e-01 -9.7356903918766202e-01 -1.9695298488068140e+00 -2.4800268320064114e+00 1.6085524263190256e+00 2.9149703994021847e-01 -1.5031977838932881e-01 2.6551513025385458e+00 -8.0119047341235528e-01 8.8279280022852069e-01 -1.9906378557447717e+00 
        </Neuron>
        <Neuron NSynapses="17">
          -7.7375810632268380e-02 -1.8432955125396749e-01 -9.6724037179129951e-01 -8.9219904790231419e-01 -4.3588677943250161e-03 8.2785338924294216e-01 -1.5189988172811797e-01 -7.1200423955682390e-01 -2.4572438375506405e+00 2.1429897145514881e-01 1.2818057208039975e+00 -4.3288275558103628e-01 -2.1929249103167900e+00 -3.0238833743139986e+00 1.4931238034089545e-01 -4.6187594063713766e-01 -4.8233356344778835e-02 
        </Neuron>
        <Neuron NSynapses="17">
          5.5139430402163114e-01 -1.5538202306291558e+00 -8.4762944679224439e-01 1.7396459821970698e+00 2.7115687648273773e-01 -1.1456771701382302e+00 -2.2766926236048581e+00 9.8847846033126807e-01 -1.8710071258039112e+00 -1.1196157020648216e+00 -7.4603060107183206e-02 1.0886521248260608e+00 -1.3929406327436995e+00 2.1388616279737884e+00 4.1760680746428547e-01 -1.7291837268319001e+00 1.1574558300660784e+00 
        </Neuron>
        <Neuron NSynapses="17">
          -2.8203559108446047e-01 -3.3454174016163996e-01 3.0475112720103575e-01 -1.8584593871231925e-01 1.0674096747928847e+00 1.9585961145432114e+00 -1.6649406184899665e-01 1.8299473129020091e-01 5.1050793833748176e-01 -1.1627042558980489e+00 8.0137402535712532e-01 -3.5054347138501324e-01 -1.8712934033477946e+00 3.1157789621948484e-01 -7.5954498006355964e-01 3.7980594920637756e-01 7.9434065537241050e-01 
        </Neuron>
        <Neuron NSynapses="17">
          6.3762406655959969e-01 1.0567522344498086e-01 3.7492619196396637e-01 2.0311576404047731e+00 2.1772171260194542e+00 1.1052449097770163e+00 4.4198747496992341e-01 -3.9380405115056255e-01 -1.1430725644735564e+00 1.9854859241583087e+00 1.4180704834937765e+00 6.9352135000804016e-01 -1.5374488113451437e+00 1.2775956142278888e+00 -2.7796015810822561e-01 7.0151962082861252e-01 3.7665447023224524e-02 
        </Neuron>
        <Neuron NSynapses="17">
          7.9077880267103398e-02 -6.8540601449537025e-02 2.5928089794200276e-01 9.3116028070407630e-01 1.4873527175144163e-01 -1.5804121047810843e-01 2.2863960374441034e-01 5.8011456995808242e-01 -1.4595487314418945e-01 9.7221760130727386e-01 1.4419965874232929e-01 -9.1876445286537559e-02 -5.8857505343875072e-01 -4.6254698785870418e-01 2.5220941171913038e+00 3.2328653967840646e+00 5.2257394511453048e-01 
        </Neuron>
        <Neuron NSynapses="17">
          1.4956000460446098e-01 -1.3634161579581756e+00 4.3234598462032321e-02 1.5623108398312158e+00 1.6005530154273939e+00 -1.4500904121302580e+00 1.5060649176566367e+00 2.6839038472111310e-01 4.8090278103283826e-02 -1.1172313236663733e+00 -1.6674255869263432e+00 2.1495618020658958e+00 1.9937522466828712e+00 -4.1045697122718999e-01 1.8235755288323535e-01 -8.5985047111918544e-01 -2.6613281852249787e-01 
        </Neuron>
        <Neuron NSynapses="17">
          4.0586159867159632e-02 -2.0373303362001466e-02 -3.6155161480481252e-01 -1.2776746487534461e+00 9.0902295391389687e-01 1.2061249067318995e+00 -4.0179878479548924e-02 6.8029815402731342e-01 -3.6052339444252313e-01 -1.9157130529004189e+00 6.5227059648445962e-01 1.5313379789180562e-01 -1.5126082282822326e+00 -1.4840060501663352e+00 1.1390148882688163e+00 -2.8402859957812815e-01 -3.2418329602315756e+00 
        </Neuron>
        <Neuron NSynapses="17">
          6.4825450996204719e+00 7.8241410641793347e+00 -9.4825382275536552e-01 -6.2177503182465033e-01 4.5217968431827824e+00 -1.9205644205546788e+00 -5.4384754352146203e+00 3.8241475952712884e-03 -1.1462317654133358e+00 -2.4955909438662598e+00 1.9155112745748868e+00 -2.0376813814725674e+00 1.7944825428653575e+00 -1.6010733358248967e+00 6.5349942354410446e+00 -4.4769033480214846e+00 1.0607958540833928e+00 
        </Neuron>
      </Layer>
      <Layer Index="1" NNeurons="18">
        <Neuron NSynapses="1">
          -3.2981479946693928e+00 
        </Neuron>
        <Neuron NSynapses="1">
          -2.2496658954990050e+00 
        </Neuron>
        <Neuron NSynapses="1">
          -5.0600459919161123e-02 
        </Neuron>
        <Neuron NSynapses="1">
          8.0462072319935485e-01 
        </Neuron>
        <Neuron NSynapses="1">
          -1.3550758101291789e+00 
        </Neuron>
        <Neuron NSynapses="1">
          6.8211261078769125e-01 
        </Neuron>
        <Neuron NSynapses="1">
          1.5436759680491303e+00 
        </Neuron>
        <Neuron NSynapses="1">
          -2.4795264321637673e+00 
        </Neuron>
        <Neuron NSynapses="1">
          -2.2818658841976436e-01 
        </Neuron>
        <Neuron NSynapses="1">
          9.0598297062894939e-01 
        </Neuron>
        <Neuron NSynapses="1">
          1.4240391700912827e+00 
        </Neuron>
        <Neuron NSynapses="1">
          1.7025605770810781e+00 
        </Neuron>
        <Neuron NSynapses="1">
          -5.8182081391333129e-01 
        </Neuron>
        <Neuron NSynapses="1">
          6.0712198915207616e-01 
        </Neuron>
        <Neuron NSynapses="1">
          -1.9625613625602409e+00 
        </Neuron>
        <Neuron NSynapses="1">
          1.5135356485105314e+00 
        </Neuron>
        <Neuron NSynapses="1">
          -1.2288790269285319e+00 
        </Neuron>
        <Neuron NSynapses="1">
          -8.8446977809473293e-01 
        </Neuron>
      </Layer>
      <Layer Index="2" NNeurons="1">
        <Neuron NSynapses="0"/>
      </Layer>
    </Layout>
  </Weights>
</MethodSetup>
