<?xml version="1.0"?>
<MethodSetup Method="MLP::MLP">
  <GeneralInfo>
    <Info name="TMVA Release" value="4.2.1 [262657]"/>
    <Info name="ROOT Release" value="6.10/05 [395781]"/>
    <Info name="Creator" value="bjoshi"/>
    <Info name="Date" value="Wed Sep 25 21:55:10 2019"/>
    <Info name="Host" value="Linux cmsbuild09.cern.ch 2.6.32-696.1.1.el6.x86_64 #1 SMP Wed Apr 12 08:44:28 CEST 2017 x86_64 x86_64 x86_64 GNU/Linux"/>
    <Info name="Dir" value="/afs/cern.ch/work/b/bjoshi/Analysis/workdirTMVAAnalysisSep_24_2019/Code/CommonUtils/tmva"/>
    <Info name="Training events" value="4446"/>
    <Info name="TrainingTime" value="2.74280810e+01"/>
    <Info name="AnalysisType" value="Classification"/>
  </GeneralInfo>
  <Options>
    <Option name="NCycles" modified="Yes">600</Option>
    <Option name="HiddenLayers" modified="Yes">N+5</Option>
    <Option name="NeuronType" modified="Yes">tanh</Option>
    <Option name="RandomSeed" modified="No">1</Option>
    <Option name="EstimatorType" modified="No">CE</Option>
    <Option name="NeuronInputType" modified="No">sum</Option>
    <Option name="V" modified="Yes">False</Option>
    <Option name="VerbosityLevel" modified="No">Default</Option>
    <Option name="VarTransform" modified="Yes">N</Option>
    <Option name="H" modified="Yes">True</Option>
    <Option name="CreateMVAPdfs" modified="No">False</Option>
    <Option name="IgnoreNegWeightsInTraining" modified="No">False</Option>
    <Option name="TrainingMethod" modified="No">BP</Option>
    <Option name="LearningRate" modified="No">2.000000e-02</Option>
    <Option name="DecayRate" modified="No">1.000000e-02</Option>
    <Option name="TestRate" modified="Yes">5</Option>
    <Option name="EpochMonitoring" modified="No">False</Option>
    <Option name="Sampling" modified="No">1.000000e+00</Option>
    <Option name="SamplingEpoch" modified="No">1.000000e+00</Option>
    <Option name="SamplingImportance" modified="No">1.000000e+00</Option>
    <Option name="SamplingTraining" modified="No">True</Option>
    <Option name="SamplingTesting" modified="No">False</Option>
    <Option name="ResetStep" modified="No">50</Option>
    <Option name="Tau" modified="No">3.000000e+00</Option>
    <Option name="BPMode" modified="No">sequential</Option>
    <Option name="BatchSize" modified="No">-1</Option>
    <Option name="ConvergenceImprove" modified="No">1.000000e-30</Option>
    <Option name="ConvergenceTests" modified="No">-1</Option>
    <Option name="UseRegulator" modified="Yes">False</Option>
    <Option name="UpdateLimit" modified="No">10000</Option>
    <Option name="CalculateErrors" modified="No">False</Option>
    <Option name="WeightRange" modified="No">1.000000e+00</Option>
  </Options>
  <Variables NVar="12">
    <Variable VarIndex="0" Expression="var_vertexKFChi2" Label="var_vertexKFChi2" Title="Variable vertexKFChi2" Unit="units" Internal="var_vertexKFChi2" Type="F" Min="6.68902975e-03" Max="9.70787964e+01"/>
    <Variable VarIndex="1" Expression="var_svpvTauAngle" Label="var_svpvTauAngle" Title="Variable svpvTauAngle" Unit="units" Internal="var_svpvTauAngle" Type="F" Min="2.47367367e-04" Max="1.37340999e+00"/>
    <Variable VarIndex="2" Expression="var_flightLenSig" Label="var_flightLenSig" Title="Variable flightLenSig" Unit="units" Internal="var_flightLenSig" Type="F" Min="7.86842644e-01" Max="2.75022621e+01"/>
    <Variable VarIndex="3" Expression="var_sumMuTrkKinkChi2" Label="var_sumMuTrkKinkChi2" Title="Variable sumMuTrkKinkChi2" Unit="units" Internal="var_sumMuTrkKinkChi2" Type="F" Min="6.49060535e+00" Max="1.04529053e+03"/>
    <Variable VarIndex="4" Expression="var_segCompMuMin" Label="var_segCompMuMin" Title="Variable segCompMuMin" Unit="units" Internal="var_segCompMuMin" Type="F" Min="0.00000000e+00" Max="1.00000000e+00"/>
    <Variable VarIndex="5" Expression="var_MinMIPLikelihood" Label="var_MinMIPLikelihood" Title="Variable MinMIPLikelihood" Unit="units" Internal="var_MinMIPLikelihood" Type="F" Min="1.03020711e-05" Max="9.94934857e-01"/>
    <Variable VarIndex="6" Expression="var_maxdca" Label="var_maxdca" Title="Variable maxdca" Unit="units" Internal="var_maxdca" Type="F" Min="1.29699707e-04" Max="1.27014697e+00"/>
    <Variable VarIndex="7" Expression="var_MuMu_mindR" Label="var_MuMu_mindR" Title="Variable MuMu_mindR" Unit="units" Internal="var_MuMu_mindR" Type="F" Min="1.28325459e-03" Max="2.93953955e-01"/>
    <Variable VarIndex="8" Expression="var_RelPt_Mu1Tau" Label="var_RelPt_Mu1Tau" Title="Variable RelPt_Mu1Tau" Unit="units" Internal="var_RelPt_Mu1Tau" Type="F" Min="7.67099634e-02" Max="8.05672526e-01"/>
    <Variable VarIndex="9" Expression="var_Eta_au" Label="var_Eta_au" Title="Variable Eta_au" Unit="units" Internal="var_Eta_au" Type="F" Min="-1.14348578e+00" Max="1.03139603e+00"/>
    <Variable VarIndex="10" Expression="var_MuMu_minKFChi2" Label="var_MuMu_minKFChi2" Title="Variable MuMu_minKFChi2" Unit="units" Internal="var_MuMu_minKFChi2" Type="F" Min="0.00000000e+00" Max="1.85702419e+01"/>
    <Variable VarIndex="11" Expression="var_MuTau_maxdR" Label="var_MuTau_maxdR" Title="Variable MuTau_maxdR" Unit="units" Internal="var_MuTau_maxdR" Type="F" Min="2.59762700e-03" Max="2.21113235e-01"/>
  </Variables>
  <Spectators NSpec="1">
    <Spectator SpecIndex="0" Expression="var_tauMass" Label="var_tauMass" Title="Variable tauMass" Unit="units" Internal="var_tauMass" Type="F" Min="8.67136776e-01" Max="3.10014224e+00"/>
  </Spectators>
  <Classes NClass="2">
    <Class Name="Signal" Index="0"/>
    <Class Name="Background" Index="1"/>
  </Classes>
  <Transformations NTransformations="1">
    <Transform Name="Normalize">
      <Selection>
        <Input NInputs="12">
          <Input Type="Variable" Label="var_vertexKFChi2" Expression="var_vertexKFChi2"/>
          <Input Type="Variable" Label="var_svpvTauAngle" Expression="var_svpvTauAngle"/>
          <Input Type="Variable" Label="var_flightLenSig" Expression="var_flightLenSig"/>
          <Input Type="Variable" Label="var_sumMuTrkKinkChi2" Expression="var_sumMuTrkKinkChi2"/>
          <Input Type="Variable" Label="var_segCompMuMin" Expression="var_segCompMuMin"/>
          <Input Type="Variable" Label="var_MinMIPLikelihood" Expression="var_MinMIPLikelihood"/>
          <Input Type="Variable" Label="var_maxdca" Expression="var_maxdca"/>
          <Input Type="Variable" Label="var_MuMu_mindR" Expression="var_MuMu_mindR"/>
          <Input Type="Variable" Label="var_RelPt_Mu1Tau" Expression="var_RelPt_Mu1Tau"/>
          <Input Type="Variable" Label="var_Eta_au" Expression="var_Eta_au"/>
          <Input Type="Variable" Label="var_MuMu_minKFChi2" Expression="var_MuMu_minKFChi2"/>
          <Input Type="Variable" Label="var_MuTau_maxdR" Expression="var_MuTau_maxdR"/>
        </Input>
        <Output NOutputs="12">
          <Output Type="Variable" Label="var_vertexKFChi2" Expression="var_vertexKFChi2"/>
          <Output Type="Variable" Label="var_svpvTauAngle" Expression="var_svpvTauAngle"/>
          <Output Type="Variable" Label="var_flightLenSig" Expression="var_flightLenSig"/>
          <Output Type="Variable" Label="var_sumMuTrkKinkChi2" Expression="var_sumMuTrkKinkChi2"/>
          <Output Type="Variable" Label="var_segCompMuMin" Expression="var_segCompMuMin"/>
          <Output Type="Variable" Label="var_MinMIPLikelihood" Expression="var_MinMIPLikelihood"/>
          <Output Type="Variable" Label="var_maxdca" Expression="var_maxdca"/>
          <Output Type="Variable" Label="var_MuMu_mindR" Expression="var_MuMu_mindR"/>
          <Output Type="Variable" Label="var_RelPt_Mu1Tau" Expression="var_RelPt_Mu1Tau"/>
          <Output Type="Variable" Label="var_Eta_au" Expression="var_Eta_au"/>
          <Output Type="Variable" Label="var_MuMu_minKFChi2" Expression="var_MuMu_minKFChi2"/>
          <Output Type="Variable" Label="var_MuTau_maxdR" Expression="var_MuTau_maxdR"/>
        </Output>
      </Selection>
      <Class ClassIndex="0">
        <Ranges>
          <Range Index="0" Min="6.6890297457575798e-03" Max="9.3677757263183594e+01"/>
          <Range Index="1" Min="2.4736736668273807e-04" Max="1.8383502960205078e-01"/>
          <Range Index="2" Min="8.8366800546646118e-01" Max="1.6567543029785156e+01"/>
          <Range Index="3" Min="7.6135931015014648e+00" Max="1.0101476440429688e+03"/>
          <Range Index="4" Min="0.0000000000000000e+00" Max="1.0000000000000000e+00"/>
          <Range Index="5" Min="1.0302071132173296e-05" Max="9.9493485689163208e-01"/>
          <Range Index="6" Min="1.2969970703125000e-04" Max="1.2701469659805298e+00"/>
          <Range Index="7" Min="1.6383801121264696e-03" Max="2.9395395517349243e-01"/>
          <Range Index="8" Min="7.6709963381290436e-02" Max="8.0567252635955811e-01"/>
          <Range Index="9" Min="-9.9340242147445679e-01" Max="1.0095351934432983e+00"/>
          <Range Index="10" Min="0.0000000000000000e+00" Max="5.6605281829833984e+00"/>
          <Range Index="11" Min="2.5976269971579313e-03" Max="2.2111323475837708e-01"/>
        </Ranges>
      </Class>
      <Class ClassIndex="1">
        <Ranges>
          <Range Index="0" Min="6.8935938179492950e-02" Max="9.7078796386718750e+01"/>
          <Range Index="1" Min="5.9346959460526705e-04" Max="1.3734099864959717e+00"/>
          <Range Index="2" Min="7.8684264421463013e-01" Max="2.7502262115478516e+01"/>
          <Range Index="3" Min="6.4906053543090820e+00" Max="1.0452905273437500e+03"/>
          <Range Index="4" Min="0.0000000000000000e+00" Max="1.0000000000000000e+00"/>
          <Range Index="5" Min="4.1515129851177335e-05" Max="9.8760408163070679e-01"/>
          <Range Index="6" Min="4.8124790191650391e-04" Max="9.6745622158050537e-01"/>
          <Range Index="7" Min="1.2832545908167958e-03" Max="1.9491252303123474e-01"/>
          <Range Index="8" Min="7.9400353133678436e-02" Max="7.6945888996124268e-01"/>
          <Range Index="9" Min="-1.1434857845306396e+00" Max="1.0313960313796997e+00"/>
          <Range Index="10" Min="0.0000000000000000e+00" Max="1.8570241928100586e+01"/>
          <Range Index="11" Min="1.1941856704652309e-02" Max="2.2005423903465271e-01"/>
        </Ranges>
      </Class>
      <Class ClassIndex="2">
        <Ranges>
          <Range Index="0" Min="6.6890297457575798e-03" Max="9.7078796386718750e+01"/>
          <Range Index="1" Min="2.4736736668273807e-04" Max="1.3734099864959717e+00"/>
          <Range Index="2" Min="7.8684264421463013e-01" Max="2.7502262115478516e+01"/>
          <Range Index="3" Min="6.4906053543090820e+00" Max="1.0452905273437500e+03"/>
          <Range Index="4" Min="0.0000000000000000e+00" Max="1.0000000000000000e+00"/>
          <Range Index="5" Min="1.0302071132173296e-05" Max="9.9493485689163208e-01"/>
          <Range Index="6" Min="1.2969970703125000e-04" Max="1.2701469659805298e+00"/>
          <Range Index="7" Min="1.2832545908167958e-03" Max="2.9395395517349243e-01"/>
          <Range Index="8" Min="7.6709963381290436e-02" Max="8.0567252635955811e-01"/>
          <Range Index="9" Min="-1.1434857845306396e+00" Max="1.0313960313796997e+00"/>
          <Range Index="10" Min="0.0000000000000000e+00" Max="1.8570241928100586e+01"/>
          <Range Index="11" Min="2.5976269971579313e-03" Max="2.2111323475837708e-01"/>
        </Ranges>
      </Class>
    </Transform>
  </Transformations>
  <MVAPdfs/>
  <Weights>
    <Layout NLayers="3">
      <Layer Index="0" NNeurons="13">
        <Neuron NSynapses="17">
          9.8955439381107224e-01 4.5478982727374735e+00 9.1366477506564991e-01 1.7605990554132387e+00 -6.2554854581050101e-01 -9.7710943867141464e-01 -1.1053132159050394e+00 2.3332447822512905e+00 -1.2516882866190973e+00 1.6237311808615271e-01 -1.8309841594897547e+00 1.0004335119107066e+00 -9.9997191315295808e-01 -7.7970951535071764e-01 -1.7249801137059197e+00 7.8614759054671624e-01 -5.4374787746092879e-01 
        </Neuron>
        <Neuron NSynapses="17">
          4.2589111848414944e+00 6.5963882991264002e+00 1.5968251402119151e+00 3.0102748161102366e-01 1.7637833664536671e+00 5.9753747433100868e-01 -3.8551954754794471e+00 -8.4858722914004436e-01 2.4860104310562031e-01 -7.1535874914390507e-02 -1.1131002104678498e+00 -2.4318365863236240e+00 2.9226394196876204e-01 6.4960876420843128e-01 1.7991851767321589e+00 -5.5224868612650002e-01 -3.3564653061090993e-01 
        </Neuron>
        <Neuron NSynapses="17">
          -3.2449153986883689e-01 2.9019196309427525e-01 -1.2318212703012368e+00 2.2654609949194593e+00 -3.4933894331867896e+00 1.1503971138701330e+00 1.6272118957142536e+00 7.6906243044092604e-01 1.3094382453346678e-01 1.7874096161245296e+00 -1.4795018678671081e+00 -1.6455549772108031e+00 3.7166642434300451e-01 2.8968356236510601e-01 2.1333431949208493e-02 1.3477508618829701e+00 2.1928394387575776e+00 
        </Neuron>
        <Neuron NSynapses="17">
          3.1796754869691901e-01 8.5821146885384980e-01 1.5179570499923944e+00 -1.1927669910580418e+00 -1.3314726562348356e-01 -1.5484527044314516e+00 -3.2264246097692801e+00 1.7980891705695363e+00 1.8773744228783078e+00 -3.6250035008359940e+00 5.2836528972726338e-01 -6.8244590379991232e-01 9.2971251633088525e-01 2.4521546436894321e+00 -8.8249040624456310e-01 -1.7748302916717104e-01 -1.2935000761710405e+00 
        </Neuron>
        <Neuron NSynapses="17">
          1.2534346770689317e-01 -8.9690896410169293e-02 -7.2198926008802944e-01 -1.1108843931798700e+00 -7.9571801102154149e-01 1.2241749380514615e+00 1.9198937424266820e+00 -7.5823966285903543e-01 -2.2530444237314504e+00 -2.7647793997202683e+00 8.9011170161077102e-01 1.0822594660425413e+00 1.9010144391731290e+00 8.0304888007298747e-01 -3.5966279499559850e-01 -1.1095216358182129e+00 -1.8239129745667777e+00 
        </Neuron>
        <Neuron NSynapses="17">
          -2.3518212912337394e-01 -3.0615592715666440e-01 -1.0435312421217149e+00 -1.1432598673774299e+00 -1.3944948435762561e+00 2.9463838970618433e-01 -2.0586386483947872e-01 1.1476663474777595e+00 -2.1385468005904946e+00 2.4010527824502736e-01 2.2667374458411698e+00 1.1412186761222869e-01 -1.8859910278115528e+00 -5.7911973157929875e-01 -1.9152853184297942e+00 -1.1771733341289039e+00 -1.9553896846875602e+00 
        </Neuron>
        <Neuron NSynapses="17">
          2.3623266386773753e-01 1.6386025394076426e-01 -9.2554030124646114e-01 2.1826669047441447e+00 5.5610023160320106e-02 -1.0253383595575414e+00 4.3081740270689048e-02 6.7951502491300197e-01 -1.5111599710958123e+00 -5.2717486119674743e-02 -3.7516527393531562e-01 4.0002486414360688e-01 -8.9448981951814432e-01 1.9095091627719913e+00 9.0100083942561315e-01 -9.4159218790188115e-01 2.9384748590529275e-04 
        </Neuron>
        <Neuron NSynapses="17">
          -9.7799448627583918e-01 -1.2619445894428474e+00 2.2752740902410851e-01 5.4482995794980345e-02 2.6884214684424310e+00 7.7671071437342265e-01 4.5917335677658440e-02 -3.2318143811650329e-01 -4.1463048477015230e-01 -1.3463870058962606e+00 1.8511229133108114e+00 1.2152193106182703e+00 -1.2181510648030249e+00 6.9759474093874507e-01 -1.4352729945827365e+00 -3.5396229515593525e-01 2.5899898800647891e+00 
        </Neuron>
        <Neuron NSynapses="17">
          1.5737209816827578e+00 3.8504876819828671e-02 3.3265339774526692e-01 1.4422730652338440e+00 9.8845253542066269e-01 7.0397868277948736e-02 1.3471574037543375e+00 -3.7639311889926141e-01 -1.6399638448224469e+00 2.8128336041427620e+00 2.0319266574186288e+00 1.0609771717469263e+00 -5.4566962145069664e-01 1.6847549796565239e-01 2.8795436780869887e-01 1.5286505143372819e+00 1.6734138639388754e+00 
        </Neuron>
        <Neuron NSynapses="17">
          -3.6945305357347896e-01 -7.9241053939954023e-02 2.3322090133983117e-01 6.8938284635827995e-01 8.0146349418476037e-01 4.9600646221266792e-01 -8.4235079722671427e-02 1.1005613702860715e+00 8.1108338360182941e-01 1.1035011335256064e+00 4.1189203999639845e-01 5.9563350896249900e-01 -1.2228199988217774e+00 -3.3640909708581512e-01 1.3725557140813500e+00 -6.7121211452997409e-01 3.2527821341246116e-01 
        </Neuron>
        <Neuron NSynapses="17">
          5.7089999513188683e-01 -2.6076633541214362e+00 -6.7178916030845304e-02 1.9386164757726583e+00 2.3210316652977983e+00 -2.2872559778507342e+00 2.3537770824887669e+00 8.1600058353137206e-01 8.5548370619926950e-01 -1.1665641235061308e+00 -1.7952397695498539e+00 1.1545491467730800e+00 2.0936601072362002e+00 -1.7327680216207486e+00 3.7507352368137770e-01 -4.2280476647843218e-01 -1.1258025029089437e-01 
        </Neuron>
        <Neuron NSynapses="17">
          8.2677347973227594e-02 2.4685536396706770e-01 -4.6453074489942986e-01 -7.9271431232445788e-01 8.7456667589185466e-01 1.2298518313581204e+00 1.7710341708261165e-01 2.3069023220447025e+00 -1.6109143781518301e-01 1.0329607916135783e+00 1.0429487699219231e+00 3.1004569068916843e-01 -9.5849449260581399e-01 -1.0321455123335153e+00 -2.4158816847060416e-01 -2.9793293519128733e-01 -5.0560555332216106e-01 
        </Neuron>
        <Neuron NSynapses="17">
          4.4527461665817807e+00 8.6782501707645476e+00 -8.2187700636792771e-01 -7.9574935065796504e-01 2.7240717164336870e+00 1.1650980623932159e+00 -3.5656361015835789e+00 -1.1680181690637445e-01 -2.5716491588647763e+00 -1.3328005882363083e+00 1.5964455003339724e+00 4.9767042813573176e-01 2.5921432473438619e-02 1.3193734537103660e-01 3.3034656985156681e+00 -1.8761233978034022e+00 -8.1844834312334547e-01 
        </Neuron>
      </Layer>
      <Layer Index="1" NNeurons="18">
        <Neuron NSynapses="1">
          -2.3057576437747644e+00 
        </Neuron>
        <Neuron NSynapses="1">
          -2.2298258307096712e+00 
        </Neuron>
        <Neuron NSynapses="1">
          -3.5480227396611047e-01 
        </Neuron>
        <Neuron NSynapses="1">
          1.0107159122824245e+00 
        </Neuron>
        <Neuron NSynapses="1">
          -9.8105024072380975e-01 
        </Neuron>
        <Neuron NSynapses="1">
          9.1615753954088996e-01 
        </Neuron>
        <Neuron NSynapses="1">
          1.6920240275032723e+00 
        </Neuron>
        <Neuron NSynapses="1">
          -2.3442381236716741e+00 
        </Neuron>
        <Neuron NSynapses="1">
          1.0567927464472493e+00 
        </Neuron>
        <Neuron NSynapses="1">
          1.2982086034768252e+00 
        </Neuron>
        <Neuron NSynapses="1">
          2.2490031608548642e+00 
        </Neuron>
        <Neuron NSynapses="1">
          1.0635399950259441e+00 
        </Neuron>
        <Neuron NSynapses="1">
          7.0322156707599615e-01 
        </Neuron>
        <Neuron NSynapses="1">
          2.0029952699364233e+00 
        </Neuron>
        <Neuron NSynapses="1">
          -2.8104405864391064e+00 
        </Neuron>
        <Neuron NSynapses="1">
          1.0229386950018338e+00 
        </Neuron>
        <Neuron NSynapses="1">
          -1.0215861961363775e+00 
        </Neuron>
        <Neuron NSynapses="1">
          -1.3403132493247756e+00 
        </Neuron>
      </Layer>
      <Layer Index="2" NNeurons="1">
        <Neuron NSynapses="0"/>
      </Layer>
    </Layout>
  </Weights>
</MethodSetup>
