<?xml version="1.0"?>
<MethodSetup Method="MLP::MLP">
  <GeneralInfo>
    <Info name="TMVA Release" value="4.2.1 [262657]"/>
    <Info name="ROOT Release" value="6.10/05 [395781]"/>
    <Info name="Creator" value="bjoshi"/>
    <Info name="Date" value="Wed Sep 25 21:59:18 2019"/>
    <Info name="Host" value="Linux cmsbuild09.cern.ch 2.6.32-696.1.1.el6.x86_64 #1 SMP Wed Apr 12 08:44:28 CEST 2017 x86_64 x86_64 x86_64 GNU/Linux"/>
    <Info name="Dir" value="/afs/cern.ch/work/b/bjoshi/Analysis/workdirTMVAAnalysisSep_24_2019/Code/CommonUtils/tmva"/>
    <Info name="Training events" value="7830"/>
    <Info name="TrainingTime" value="4.78026791e+01"/>
    <Info name="AnalysisType" value="Classification"/>
  </GeneralInfo>
  <Options>
    <Option name="NCycles" modified="Yes">600</Option>
    <Option name="HiddenLayers" modified="Yes">N+5</Option>
    <Option name="NeuronType" modified="Yes">tanh</Option>
    <Option name="RandomSeed" modified="No">1</Option>
    <Option name="EstimatorType" modified="No">CE</Option>
    <Option name="NeuronInputType" modified="No">sum</Option>
    <Option name="V" modified="Yes">False</Option>
    <Option name="VerbosityLevel" modified="No">Default</Option>
    <Option name="VarTransform" modified="Yes">N</Option>
    <Option name="H" modified="Yes">True</Option>
    <Option name="CreateMVAPdfs" modified="No">False</Option>
    <Option name="IgnoreNegWeightsInTraining" modified="No">False</Option>
    <Option name="TrainingMethod" modified="No">BP</Option>
    <Option name="LearningRate" modified="No">2.000000e-02</Option>
    <Option name="DecayRate" modified="No">1.000000e-02</Option>
    <Option name="TestRate" modified="Yes">5</Option>
    <Option name="EpochMonitoring" modified="No">False</Option>
    <Option name="Sampling" modified="No">1.000000e+00</Option>
    <Option name="SamplingEpoch" modified="No">1.000000e+00</Option>
    <Option name="SamplingImportance" modified="No">1.000000e+00</Option>
    <Option name="SamplingTraining" modified="No">True</Option>
    <Option name="SamplingTesting" modified="No">False</Option>
    <Option name="ResetStep" modified="No">50</Option>
    <Option name="Tau" modified="No">3.000000e+00</Option>
    <Option name="BPMode" modified="No">sequential</Option>
    <Option name="BatchSize" modified="No">-1</Option>
    <Option name="ConvergenceImprove" modified="No">1.000000e-30</Option>
    <Option name="ConvergenceTests" modified="No">-1</Option>
    <Option name="UseRegulator" modified="Yes">False</Option>
    <Option name="UpdateLimit" modified="No">10000</Option>
    <Option name="CalculateErrors" modified="No">False</Option>
    <Option name="WeightRange" modified="No">1.000000e+00</Option>
  </Options>
  <Variables NVar="12">
    <Variable VarIndex="0" Expression="var_vertexKFChi2" Label="var_vertexKFChi2" Title="Variable vertexKFChi2" Unit="units" Internal="var_vertexKFChi2" Type="F" Min="3.83814704e-03" Max="9.96464615e+01"/>
    <Variable VarIndex="1" Expression="var_svpvTauAngle" Label="var_svpvTauAngle" Title="Variable svpvTauAngle" Unit="units" Internal="var_svpvTauAngle" Type="F" Min="7.99511545e-05" Max="2.67154694e+00"/>
    <Variable VarIndex="2" Expression="var_flightLenSig" Label="var_flightLenSig" Title="Variable flightLenSig" Unit="units" Internal="var_flightLenSig" Type="F" Min="2.01114655e-01" Max="1.65041428e+01"/>
    <Variable VarIndex="3" Expression="var_sumMuTrkKinkChi2" Label="var_sumMuTrkKinkChi2" Title="Variable sumMuTrkKinkChi2" Unit="units" Internal="var_sumMuTrkKinkChi2" Type="F" Min="7.63311195e+00" Max="3.15711304e+03"/>
    <Variable VarIndex="4" Expression="var_segCompMuMin" Label="var_segCompMuMin" Title="Variable segCompMuMin" Unit="units" Internal="var_segCompMuMin" Type="F" Min="0.00000000e+00" Max="1.00000000e+00"/>
    <Variable VarIndex="5" Expression="var_MinMIPLikelihood" Label="var_MinMIPLikelihood" Title="Variable MinMIPLikelihood" Unit="units" Internal="var_MinMIPLikelihood" Type="F" Min="1.48508479e-06" Max="9.93214130e-01"/>
    <Variable VarIndex="6" Expression="var_maxdca" Label="var_maxdca" Title="Variable maxdca" Unit="units" Internal="var_maxdca" Type="F" Min="3.84330750e-04" Max="6.20990229e+00"/>
    <Variable VarIndex="7" Expression="var_MuMu_mindR" Label="var_MuMu_mindR" Title="Variable MuMu_mindR" Unit="units" Internal="var_MuMu_mindR" Type="F" Min="1.10285834e-03" Max="3.26470047e-01"/>
    <Variable VarIndex="8" Expression="var_RelPt_Mu1Tau" Label="var_RelPt_Mu1Tau" Title="Variable RelPt_Mu1Tau" Unit="units" Internal="var_RelPt_Mu1Tau" Type="F" Min="4.18756306e-02" Max="8.53525698e-01"/>
    <Variable VarIndex="9" Expression="var_Eta_au" Label="var_Eta_au" Title="Variable Eta_au" Unit="units" Internal="var_Eta_au" Type="F" Min="-2.39092207e+00" Max="2.39264131e+00"/>
    <Variable VarIndex="10" Expression="var_MuMu_minKFChi2" Label="var_MuMu_minKFChi2" Title="Variable MuMu_minKFChi2" Unit="units" Internal="var_MuMu_minKFChi2" Type="F" Min="0.00000000e+00" Max="2.91104889e+01"/>
    <Variable VarIndex="11" Expression="var_MuTau_maxdR" Label="var_MuTau_maxdR" Title="Variable MuTau_maxdR" Unit="units" Internal="var_MuTau_maxdR" Type="F" Min="3.74789676e-03" Max="4.19102371e-01"/>
  </Variables>
  <Spectators NSpec="1">
    <Spectator SpecIndex="0" Expression="var_tauMass" Label="var_tauMass" Title="Variable tauMass" Unit="units" Internal="var_tauMass" Type="F" Min="6.00327790e-01" Max="3.68828702e+00"/>
  </Spectators>
  <Classes NClass="2">
    <Class Name="Signal" Index="0"/>
    <Class Name="Background" Index="1"/>
  </Classes>
  <Transformations NTransformations="1">
    <Transform Name="Normalize">
      <Selection>
        <Input NInputs="12">
          <Input Type="Variable" Label="var_vertexKFChi2" Expression="var_vertexKFChi2"/>
          <Input Type="Variable" Label="var_svpvTauAngle" Expression="var_svpvTauAngle"/>
          <Input Type="Variable" Label="var_flightLenSig" Expression="var_flightLenSig"/>
          <Input Type="Variable" Label="var_sumMuTrkKinkChi2" Expression="var_sumMuTrkKinkChi2"/>
          <Input Type="Variable" Label="var_segCompMuMin" Expression="var_segCompMuMin"/>
          <Input Type="Variable" Label="var_MinMIPLikelihood" Expression="var_MinMIPLikelihood"/>
          <Input Type="Variable" Label="var_maxdca" Expression="var_maxdca"/>
          <Input Type="Variable" Label="var_MuMu_mindR" Expression="var_MuMu_mindR"/>
          <Input Type="Variable" Label="var_RelPt_Mu1Tau" Expression="var_RelPt_Mu1Tau"/>
          <Input Type="Variable" Label="var_Eta_au" Expression="var_Eta_au"/>
          <Input Type="Variable" Label="var_MuMu_minKFChi2" Expression="var_MuMu_minKFChi2"/>
          <Input Type="Variable" Label="var_MuTau_maxdR" Expression="var_MuTau_maxdR"/>
        </Input>
        <Output NOutputs="12">
          <Output Type="Variable" Label="var_vertexKFChi2" Expression="var_vertexKFChi2"/>
          <Output Type="Variable" Label="var_svpvTauAngle" Expression="var_svpvTauAngle"/>
          <Output Type="Variable" Label="var_flightLenSig" Expression="var_flightLenSig"/>
          <Output Type="Variable" Label="var_sumMuTrkKinkChi2" Expression="var_sumMuTrkKinkChi2"/>
          <Output Type="Variable" Label="var_segCompMuMin" Expression="var_segCompMuMin"/>
          <Output Type="Variable" Label="var_MinMIPLikelihood" Expression="var_MinMIPLikelihood"/>
          <Output Type="Variable" Label="var_maxdca" Expression="var_maxdca"/>
          <Output Type="Variable" Label="var_MuMu_mindR" Expression="var_MuMu_mindR"/>
          <Output Type="Variable" Label="var_RelPt_Mu1Tau" Expression="var_RelPt_Mu1Tau"/>
          <Output Type="Variable" Label="var_Eta_au" Expression="var_Eta_au"/>
          <Output Type="Variable" Label="var_MuMu_minKFChi2" Expression="var_MuMu_minKFChi2"/>
          <Output Type="Variable" Label="var_MuTau_maxdR" Expression="var_MuTau_maxdR"/>
        </Output>
      </Selection>
      <Class ClassIndex="0">
        <Ranges>
          <Range Index="0" Min="3.8381470367312431e-03" Max="9.9646461486816406e+01"/>
          <Range Index="1" Min="1.1483516573207453e-04" Max="4.8857113718986511e-01"/>
          <Range Index="2" Min="8.9262747764587402e-01" Max="1.6504142761230469e+01"/>
          <Range Index="3" Min="7.6331119537353516e+00" Max="1.0319599609375000e+03"/>
          <Range Index="4" Min="0.0000000000000000e+00" Max="1.0000000000000000e+00"/>
          <Range Index="5" Min="1.4850847946945578e-06" Max="9.9321413040161133e-01"/>
          <Range Index="6" Min="3.8433074951171875e-04" Max="3.6762266159057617e+00"/>
          <Range Index="7" Min="2.3647826164960861e-03" Max="3.1333741545677185e-01"/>
          <Range Index="8" Min="4.1875630617141724e-02" Max="8.4894073009490967e-01"/>
          <Range Index="9" Min="-2.3909220695495605e+00" Max="2.3926413059234619e+00"/>
          <Range Index="10" Min="0.0000000000000000e+00" Max="2.0598953247070312e+01"/>
          <Range Index="11" Min="3.7478967569768429e-03" Max="4.1910237073898315e-01"/>
        </Ranges>
      </Class>
      <Class ClassIndex="1">
        <Ranges>
          <Range Index="0" Min="5.6725004687905312e-03" Max="9.9498657226562500e+01"/>
          <Range Index="1" Min="7.9951154475566000e-05" Max="2.6715469360351562e+00"/>
          <Range Index="2" Min="2.0111465454101562e-01" Max="1.3469629287719727e+01"/>
          <Range Index="3" Min="8.3400602340698242e+00" Max="3.1571130371093750e+03"/>
          <Range Index="4" Min="0.0000000000000000e+00" Max="1.0000000000000000e+00"/>
          <Range Index="5" Min="1.4997611970102298e-06" Max="9.8523885011672974e-01"/>
          <Range Index="6" Min="1.8849372863769531e-03" Max="6.2099022865295410e+00"/>
          <Range Index="7" Min="1.1028583394363523e-03" Max="3.2647004723548889e-01"/>
          <Range Index="8" Min="4.5177239924669266e-02" Max="8.5352569818496704e-01"/>
          <Range Index="9" Min="-2.3864102363586426e+00" Max="2.3638060092926025e+00"/>
          <Range Index="10" Min="0.0000000000000000e+00" Max="2.9110488891601562e+01"/>
          <Range Index="11" Min="5.7342671789228916e-03" Max="3.5425040125846863e-01"/>
        </Ranges>
      </Class>
      <Class ClassIndex="2">
        <Ranges>
          <Range Index="0" Min="3.8381470367312431e-03" Max="9.9646461486816406e+01"/>
          <Range Index="1" Min="7.9951154475566000e-05" Max="2.6715469360351562e+00"/>
          <Range Index="2" Min="2.0111465454101562e-01" Max="1.6504142761230469e+01"/>
          <Range Index="3" Min="7.6331119537353516e+00" Max="3.1571130371093750e+03"/>
          <Range Index="4" Min="0.0000000000000000e+00" Max="1.0000000000000000e+00"/>
          <Range Index="5" Min="1.4850847946945578e-06" Max="9.9321413040161133e-01"/>
          <Range Index="6" Min="3.8433074951171875e-04" Max="6.2099022865295410e+00"/>
          <Range Index="7" Min="1.1028583394363523e-03" Max="3.2647004723548889e-01"/>
          <Range Index="8" Min="4.1875630617141724e-02" Max="8.5352569818496704e-01"/>
          <Range Index="9" Min="-2.3909220695495605e+00" Max="2.3926413059234619e+00"/>
          <Range Index="10" Min="0.0000000000000000e+00" Max="2.9110488891601562e+01"/>
          <Range Index="11" Min="3.7478967569768429e-03" Max="4.1910237073898315e-01"/>
        </Ranges>
      </Class>
    </Transform>
  </Transformations>
  <MVAPdfs/>
  <Weights>
    <Layout NLayers="3">
      <Layer Index="0" NNeurons="13">
        <Neuron NSynapses="17">
          -2.6797746408089290e-01 5.6807524429447280e+00 6.3062840436927226e-01 2.3987374235938961e+00 1.0414141328805565e-01 7.1012893359668761e-01 1.1087321798991685e+00 1.9384586705791749e+00 -1.9409700543549352e-01 -1.0895965563941941e+00 -1.1460024758927059e+00 4.1041187048858969e+00 -9.2000788366611741e-01 -1.0751956255143917e+00 -6.1334818656333601e-01 3.8519492339923983e-01 -1.7199418072010053e+00 
        </Neuron>
        <Neuron NSynapses="17">
          5.4510974440175968e+00 6.5425617977776813e+00 1.6845599807728933e+00 7.7873915324698270e-02 2.5213507890531188e+00 -1.0415428444636758e-01 -7.4857306779555766e-01 -1.1034927256523910e+00 3.0219279241218644e-01 6.3803028992897615e-01 -1.2679406560573576e+00 -7.6560581904243019e+00 -7.5069849644363507e-01 5.1206602830586723e-01 1.0499732285693690e+00 -1.4492265873134540e+00 -1.0656583259471049e+00 
        </Neuron>
        <Neuron NSynapses="17">
          -1.4043517483283111e-01 1.2749503151407068e-01 -1.5640587796717558e+00 1.8117804320699771e+00 -1.2476455537295716e+00 2.2172074355823490e+00 1.6424954452031670e+00 2.1075715755732523e+00 3.3150058707685943e+00 1.0676743146023095e+00 -7.9337024822331748e-01 -3.9910043278962687e-01 1.8725489574103580e+00 5.4362555421694259e-01 1.0883411264045060e+00 2.2148024738423340e+00 1.6581350415118983e+00 
        </Neuron>
        <Neuron NSynapses="17">
          3.2281568275155235e+00 -1.4553637531076693e+00 2.1361493316005005e+00 -1.5494805033068513e+00 3.0221271881623102e-01 -2.8396934109861554e+00 -1.2630993612318169e+00 2.0876692693182926e+00 5.9763751148814936e-01 -1.6723926903446986e+00 3.2299980193444211e-01 -9.0814468560878003e-01 2.9946492450081713e-01 1.9468732206721568e+00 -9.5154476313441438e-01 -4.1359718768894493e-01 -1.4055969465801375e+00 
        </Neuron>
        <Neuron NSynapses="17">
          3.0127354438688025e-01 -9.4031057863704831e-02 -9.2211913021480574e-02 -1.9837824182497001e+00 1.3476164885223976e-01 1.5046489870924444e+00 5.6368403806747747e+00 1.5506962622348902e-01 -1.1357268914782563e+00 -7.9406544772846144e-01 1.9838213867021151e+00 -9.1287038342735119e-02 2.5173164401630452e+00 3.4130499917709849e+00 1.3944394617673799e+00 -1.0010401932682994e-01 -4.4506351292449436e-01 
        </Neuron>
        <Neuron NSynapses="17">
          -8.0278593667280129e-02 -1.3788801179671895e-01 -5.4512087070703841e-01 -1.8304205011555517e+00 -5.8636417452956102e-01 1.1367524003069840e-01 -1.1371063966765853e-01 -5.9013912761713561e-01 -2.0926523140460751e+00 -2.1716917216497592e-01 1.4980612426230677e+00 -1.3881913860109299e-01 -5.0179188927933260e-01 -1.3921876327598359e+00 7.0547479618906672e-01 -1.8755452120291995e+00 -1.0934986410938370e+00 
        </Neuron>
        <Neuron NSynapses="17">
          7.5612396718427169e-03 -6.9934410287608528e-01 -1.2376346664296483e+00 2.0435889564061340e+00 1.0648081876201532e+00 -2.3727763410297720e+00 -6.4508653726996434e-02 7.8314144566324961e-01 -1.5986332278023365e+00 -1.0778327282412064e+00 1.9117687315609760e-01 1.8247762357603733e-01 -2.3355496393635296e+00 1.8206737988300488e+00 -3.9864025167031379e-02 -1.0068739452877149e+00 1.2855335436636639e+00 
        </Neuron>
        <Neuron NSynapses="17">
          -7.7713288250481083e-01 1.5710082414132620e-01 -4.5498600949690582e-01 -1.7141443312440741e-01 6.9900625659296556e-01 1.0059017409700757e+00 2.0549941314478601e-01 -1.2851755463760903e-01 -2.8683041221976963e-01 -2.4373068987571562e+00 1.0318702959283308e+00 -1.1132774816570542e-02 -5.9543894489913263e-01 1.3420472754885280e+00 -1.7292547131901919e+00 -1.3921717859745408e-01 1.1104043765358875e+00 
        </Neuron>
        <Neuron NSynapses="17">
          2.3993860513555068e-01 -4.0632263788219286e-01 -1.2284115062231542e-01 1.4471449038485069e+00 1.4575246470994931e+00 1.6528924403386305e+00 1.1729247250385066e+00 -4.8087575076319317e-01 -2.1255510577325469e+00 1.5792594715828481e+00 1.0849709112069175e+00 -5.9450525336525950e-01 3.3036115619229300e-01 -1.3776187538085708e-02 -1.1056054764967509e+00 1.0717088717972174e-01 1.2116569111704893e-01 
        </Neuron>
        <Neuron NSynapses="17">
          1.2183671052814820e-02 1.0567473439139136e-01 -2.2544507498741826e+00 -1.1656678118789947e-01 1.0001609584841807e-02 2.3992829936216872e-01 1.5880963253949160e-01 6.6084846515888418e-01 -3.0184312616124781e-01 2.1659108973198213e-02 3.6103091636967921e-01 1.2682315734571678e-01 3.4804517405070695e-01 3.8908535850002957e-01 3.4476509164423275e-01 6.3180735532034527e-01 -1.3189063620871502e+00 
        </Neuron>
        <Neuron NSynapses="17">
          -5.9447970185306231e-01 -1.9704558855605927e-02 -1.0569161751049380e-01 1.0121286621342662e+00 2.0612336588702069e+00 -6.2693521536244912e-01 -3.1890746131445108e-01 -4.8015239254003794e-01 -9.2805983734615738e-02 -1.2686776663684292e+00 -1.5327285569489282e+00 1.9802503936653055e+00 2.1536046045118908e+00 -1.0305898171287415e+00 -7.3991078398550536e-01 7.8255634116862205e-01 8.8356790021363651e-01 
        </Neuron>
        <Neuron NSynapses="17">
          5.0711402539393748e-02 -2.3991955372602350e-01 -1.1920615023617598e-01 -6.0982988032013752e-01 5.5212680321139751e-01 1.0790631938276145e+00 9.7005346862250763e-01 1.6588668097118239e-01 1.7575811562928714e-01 5.7506252710044603e-01 9.2439382169403639e-01 -2.0786110795521856e-01 -4.1879941578334073e-01 -6.8136433570828603e-01 -3.9266585652637620e-01 3.8938417995365587e-01 -3.0090040607700086e+00 
        </Neuron>
        <Neuron NSynapses="17">
          7.1834465434501231e+00 9.7455230507094051e+00 -1.3965384988051184e+00 -4.4524186878798566e-01 5.3200665908388558e+00 -2.0993438846934627e+00 -3.7487294638277162e+00 -2.9201527804746646e-01 -7.6486974610529579e-01 -2.3665698971205020e+00 1.8504316535716323e+00 -2.4550085180438441e+00 -2.2541853633085718e-01 -1.1613665765126455e+00 2.6588532716887565e+00 -2.4481978920135945e+00 -2.9930554229549045e+00 
        </Neuron>
      </Layer>
      <Layer Index="1" NNeurons="18">
        <Neuron NSynapses="1">
          -3.4349402491708165e+00 
        </Neuron>
        <Neuron NSynapses="1">
          -4.0096136393060027e+00 
        </Neuron>
        <Neuron NSynapses="1">
          1.8504743694834702e+00 
        </Neuron>
        <Neuron NSynapses="1">
          -7.9213936667298179e-01 
        </Neuron>
        <Neuron NSynapses="1">
          -2.0963462157411299e+00 
        </Neuron>
        <Neuron NSynapses="1">
          8.1898659732493140e-01 
        </Neuron>
        <Neuron NSynapses="1">
          1.0219718296831080e+00 
        </Neuron>
        <Neuron NSynapses="1">
          -1.6441229787224103e+00 
        </Neuron>
        <Neuron NSynapses="1">
          -7.9213050797799711e-01 
        </Neuron>
        <Neuron NSynapses="1">
          1.1319300527960146e+00 
        </Neuron>
        <Neuron NSynapses="1">
          9.4260902385828149e-01 
        </Neuron>
        <Neuron NSynapses="1">
          3.3602130639348622e+00 
        </Neuron>
        <Neuron NSynapses="1">
          1.1292516468367457e+00 
        </Neuron>
        <Neuron NSynapses="1">
          4.1485754767079269e-01 
        </Neuron>
        <Neuron NSynapses="1">
          -1.5457534695592448e+00 
        </Neuron>
        <Neuron NSynapses="1">
          1.2386402869098101e+00 
        </Neuron>
        <Neuron NSynapses="1">
          6.9624752298272674e-01 
        </Neuron>
        <Neuron NSynapses="1">
          -1.7130827734927045e+00 
        </Neuron>
      </Layer>
      <Layer Index="2" NNeurons="1">
        <Neuron NSynapses="0"/>
      </Layer>
    </Layout>
  </Weights>
</MethodSetup>
